{"learner":{"attributes":{"scikit_learn":"{\"_estimator_type\": \"ranker\"}"},"feature_names":["ret_1d","ret_5d","volatility_5d","volatility_10d","vol_change_1d","turnover","turnover_change_1d","bias_3d","bias_5d","bias_20d","amplitude","close_shadow","ret_1d_rel","volatility_5d_rel","volatility_10d_rel","vol_change_1d_rel","turnover_rel","amplitude_rel","close_shadow_rel"],"feature_types":["float","float","float","float","float","float","float","float","float","float","float","float","float","float","float","float","float","float","float"],"gradient_booster":{"model":{"cats":{"enc":[],"feature_segments":[],"sorted_idx":[]},"gbtree_model_param":{"num_parallel_tree":"1","num_trees":"200"},"iteration_indptr":[0,1,2,3,4,5,6,7,8,9,10,11,12,13,14,15,16,17,18,19,20,21,22,23,24,25,26,27,28,29,30,31,32,33,34,35,36,37,38,39,40,41,42,43,44,45,46,47,48,49,50,51,52,53,54,55,56,57,58,59,60,61,62,63,64,65,66,67,68,69,70,71,72,73,74,75,76,77,78,79,80,81,82,83,84,85,86,87,88,89,90,91,92,93,94,95,96,97,98,99,100,101,102,103,104,105,106,107,108,109,110,111,112,113,114,115,116,117,118,119,120,121,122,123,124,125,126,127,128,129,130,131,132,133,134,135,136,137,138,139,140,141,142,143,144,145,146,147,148,149,150,151,152,153,154,155,156,157,158,159,160,161,162,163,164,165,166,167,168,169,170,171,172,173,174,175,176,177,178,179,180,181,182,183,184,185,186,187,188,189,190,191,192,193,194,195,196,197,198,199,200],"tree_info":[0,0,0,0,0,0,0,0,0,0,0,0,0,0,0,0,0,0,0,0,0,0,0,0,0,0,0,0,0,0,0,0,0,0,0,0,0,0,0,0,0,0,0,0,0,0,0,0,0,0,0,0,0,0,0,0,0,0,0,0,0,0,0,0,0,0,0,0,0,0,0,0,0,0,0,0,0,0,0,0,0,0,0,0,0,0,0,0,0,0,0,0,0,0,0,0,0,0,0,0,0,0,0,0,0,0,0,0,0,0,0,0,0,0,0,0,0,0,0,0,0,0,0,0,0,0,0,0,0,0,0,0,0,0,0,0,0,0,0,0,0,0,0,0,0,0,0,0,0,0,0,0,0,0,0,0,0,0,0,0,0,0,0,0,0,0,0,0,0,0,0,0,0,0,0,0,0,0,0,0,0,0,0,0,0,0,0,0,0,0,0,0,0,0,0,0,0,0,0,0],"trees":[{"base_weights":[-9.568192E-10,2.0689888E-2,-4.4259283E-1,3.3265668E-1,-4.4764667E-3,2.569257E-1,-5.6724435E-1,1.4046746E-1,7.2E-1,3.2991655E-2,-6.751094E-2,-3.292498E-3,2.3364333E-2,-6.700748E-1,1.8003238E-2,3.3185792E-1,-1.7391305E-1,4.2857144E-2,-0E0,2.0032538E-2,3.3208716E-1,-1.11402854E-1,8.4662914E-2,3.7014062E-4,-4.002226E-2,1.9227926E-2,-1.092139E-3,-3.3333335E-2,5.882353E-3,-1.5787812E-2,1.5074672E-3,1.607438E-3,2.066149E-2,4.725392E-5,-1.1006497E-2,1.3975336E-2,-7.778303E-5],"categories":[],"categories_nodes":[],"categories_segments":[],"categories_sizes":[],"default_left":[0,0,0,0,0,0,0,0,0,0,0,0,0,0,0,0,0,0,0,0,0,0,0,0,0,0,0,0,0,0,0,0,0,0,0,0,0],"id":0,"left_children":[1,3,5,7,9,11,13,15,17,19,21,-1,-1,23,-1,25,27,-1,-1,29,31,33,35,-1,-1,-1,-1,-1,-1,-1,-1,-1,-1,-1,-1,-1,-1],"loss_changes":[3.318803E0,2.7198422E0,1.5570672E0,1.8239231E0,7.612585E-1,2.4372116E-1,1.5809627E0,1.1724195E0,8.2285786E-1,7.772292E-1,8.1188E-1,0E0,0E0,1.1538162E0,0E0,2.294625E-1,1.1798809E0,0E0,0E0,6.7163265E-1,1.8955761E-1,1.1445084E0,4.61797E-1,0E0,0E0,0E0,0E0,0E0,0E0,0E0,0E0,0E0,0E0,0E0,0E0,0E0,0E0],"parents":[2147483647,0,0,1,1,2,2,3,3,4,4,5,5,6,6,7,7,8,8,9,9,10,10,13,13,15,15,16,16,19,19,20,20,21,21,22,22],"right_children":[2,4,6,8,10,12,14,16,18,20,22,-1,-1,24,-1,26,28,-1,-1,30,32,34,36,-1,-1,-1,-1,-1,-1,-1,-1,-1,-1,-1,-1,-1,-1],"split_conditions":[8.2179604E9,9.223872E-3,-1.7110266E-2,9.909822E-1,5.0213676E-2,-9.388924E-3,4.8872182E-1,7.149257E-1,-3.4129692E-3,7.381085E-1,4.6494104E-2,-3.292498E-3,2.3364333E-2,-2.5248522E-1,1.8003238E-2,3.649635E-2,7.852782E-1,4.2857144E-2,-0E0,-4.7039366E-1,1.0990104E8,-6.147514E-2,-1.1465956E-1,3.7014062E-4,-4.002226E-2,1.9227926E-2,-1.092139E-3,-3.3333335E-2,5.882353E-3,-1.5787812E-2,1.5074672E-3,1.607438E-3,2.066149E-2,4.725392E-5,-1.1006497E-2,1.3975336E-2,-7.778303E-5],"split_indices":[5,2,7,13,10,6,11,13,7,18,9,0,0,15,0,10,14,0,0,4,5,9,6,0,0,0,0,0,0,0,0,0,0,0,0,0,0],"split_type":[0,0,0,0,0,0,0,0,0,0,0,0,0,0,0,0,0,0,0,0,0,0,0,0,0,0,0,0,0,0,0,0,0,0,0,0,0],"sum_hessian":[3.6042566E2,3.4523996E2,1.518568E1,2.4859438E1,3.2038052E2,2.1362624E0,1.3049418E1,1.7526104E1,7.3333335E0,2.012392E2,1.1914134E2,1.1139683E0,1.0222943E0,1.1996508E1,1.05291E0,1.0859438E1,6.666667E0,6E0,1.3333334E0,1.9390472E2,7.334466E0,9.267792E1,2.646342E1,2.08821E0,9.9082985E0,9.375298E0,1.4841399E0,2E0,4.666667E0,4.787599E0,1.8911713E2,1.8589995E0,5.4754667E0,4.6067535E1,4.6610382E1,7.430202E0,1.9033218E1],"tree_param":{"num_deleted":"0","num_feature":"19","num_nodes":"37","size_leaf_vector":"1"}},{"base_weights":[-8.479642E-5,1.6565268E-1,-6.040077E-2,9.0686806E-2,6.897231E-1,6.2419087E-1,-7.6316215E-2,2.2791871E-1,-4.4976372E-1,4.551512E-2,-1.9118067E-2,-7.3796595E-3,4.2873725E-2,-1.4203551E-1,7.0679486E-2,3.3425145E-2,1.7830694E-1,-4.814328E-3,-6.968382E-1,2.2822616E-1,-1.790761E-1,-9.177194E-4,3.726795E-1,7.6398514E-3,3.494313E-2,-3.6814086E-2,-5.220109E-3,-8.770195E-3,2.1341143E-2,-2.7843285E-2,-7.204277E-3,5.4969536E-3,-3.6816576E-3,2.7987106E-2,4.1925097E-3],"categories":[],"categories_nodes":[],"categories_segments":[],"categories_sizes":[],"default_left":[0,0,0,0,0,0,0,0,0,0,0,0,0,0,0,0,0,0,0,0,0,0,0,0,0,0,0,0,0,0,0,0,0,0,0],"id":1,"left_children":[1,3,5,7,9,11,13,15,17,-1,-1,-1,-1,19,21,-1,23,-1,25,27,29,31,33,-1,-1,-1,-1,-1,-1,-1,-1,-1,-1,-1,-1],"loss_changes":[5.4147925E0,5.615559E0,4.3746433E0,9.5656395E0,4.5894156E0,1.7706864E0,3.7679775E0,2.1194735E0,2.21881E0,0E0,0E0,0E0,0E0,3.7321925E0,2.613443E0,0E0,1.1337218E0,0E0,2.7937984E-1,2.0721679E0,3.1615286E0,8.0362695E-1,1.204534E0,0E0,0E0,0E0,0E0,0E0,0E0,0E0,0E0,0E0,0E0,0E0,0E0],"parents":[2147483647,0,0,1,1,2,2,3,3,4,4,5,5,6,6,7,7,8,8,13,13,14,14,16,16,18,18,19,19,20,20,21,21,22,22],"right_children":[2,4,6,8,10,12,14,16,18,-1,-1,-1,-1,20,22,-1,24,-1,26,28,30,32,34,-1,-1,-1,-1,-1,-1,-1,-1,-1,-1,-1,-1],"split_conditions":[1.6617117E-2,9.909822E-1,1.3614321E-1,-7.503035E-3,-3.4129692E-3,2.2799732E7,6.0301507E-1,2.858693E-1,1.05129376E-1,4.551512E-2,-1.9118067E-2,-7.3796595E-3,4.2873725E-2,-6.7334527E-1,1.3388836E9,3.3425145E-2,5.177551E9,-4.814328E-3,7.9526323E-1,-6.3204807E-3,-7.352941E-1,-1.250055E-2,4.1666668E-2,7.6398514E-3,3.494313E-2,-3.6814086E-2,-5.220109E-3,-8.770195E-3,2.1341143E-2,-2.7843285E-2,-7.204277E-3,5.4969536E-3,-3.6816576E-3,2.7987106E-2,4.1925097E-3],"split_indices":[3,13,16,17,7,5,11,14,18,0,0,0,0,18,5,0,5,0,18,6,11,17,10,0,0,0,0,0,0,0,0,0,0,0,0],"split_type":[0,0,0,0,0,0,0,0,0,0,0,0,0,0,0,0,0,0,0,0,0,0,0,0,0,0,0,0,0,0,0,0,0,0,0],"sum_hessian":[5.3966156E2,1.4352745E2,3.9613412E2,1.2659208E2,1.6935375E1,8.13179E0,3.8800232E2,1.0141813E2,2.5173946E1,1.4170688E1,2.7646878E0,1.9727068E0,6.159083E0,2.681505E2,1.1985181E2,9.001795E0,9.2416336E1,1.0928621E1,1.4245325E1,2.3916563E1,2.4423395E2,9.768898E1,2.2162832E1,8.933213E1,3.0842078E0,1.312845E1,1.1168754E0,7.925493E0,1.5991071E1,1.943894E1,2.2479501E2,3.8493145E1,5.919583E1,1.2881838E1,9.280993E0],"tree_param":{"num_deleted":"0","num_feature":"19","num_nodes":"35","size_leaf_vector":"1"}},{"base_weights":[8.1902675E-5,3.5616106E-1,-1.6764592E-1,5.394854E-1,1.5321277E-1,-2.828659E-1,-4.4618446E-2,-3.682277E-2,5.720612E-1,5.1827814E-2,4.277606E-2,1.08613625E-4,-3.3435324E-1,1.296023E-1,-1.825648E-1,2.0295776E-1,-1.7497396E-2,6.187465E-1,2.8087503E-1,-5.84744E-1,1.21202715E-1,1.8776998E-1,-1.5032E-1,-3.5660538E-1,-1.1851478E-1,4.0070695E-1,-6.715889E-2,-4.5612E-1,1.2670688E-2,5.286461E-4,1.3905199E-2,3.3081945E-2,1.3212452E-2,7.61334E-3,2.6686728E-2,-3.1341824E-3,-3.401116E-2,1.8306097E-3,2.3620153E-2,-1.2094512E-3,1.6188394E-2,-1.5399097E-2,2.4458177E-3,-1.9264437E-2,-1.281543E-2,-1.1370871E-2,6.0567367E-3,4.1369643E-2,-1.3629085E-2,-1.1679842E-2,1.47495745E-2,-5.7893707E-3,-3.942704E-2,-2.268948E-3,3.191535E-2],"categories":[],"categories_nodes":[],"categories_segments":[],"categories_sizes":[],"default_left":[0,0,0,0,0,0,0,0,0,0,0,0,0,0,0,0,0,0,0,0,0,0,0,0,0,0,0,0,0,0,0,0,0,0,0,0,0,0,0,0,0,0,0,0,0,0,0,0,0,0,0,0,0,0,0],"id":2,"left_children":[1,3,5,7,9,11,13,15,17,19,-1,21,23,25,27,29,-1,31,33,35,37,39,41,43,45,47,49,51,53,-1,-1,-1,-1,-1,-1,-1,-1,-1,-1,-1,-1,-1,-1,-1,-1,-1,-1,-1,-1,-1,-1,-1,-1,-1,-1],"loss_changes":[3.126323E1,6.1535664E0,5.0315275E0,1.6669369E0,5.719369E0,2.6744986E0,4.188071E0,4.9372426E-1,9.550533E-1,3.2417169E0,0E0,8.541616E-1,7.0365524E-1,4.1426454E0,5.192828E0,5.2303895E-2,0E0,9.006901E-1,3.5141385E-1,3.1762934E-1,1.9307454E0,3.959003E-1,5.4263896E-1,3.0485153E-1,4.4545946E-1,9.588543E0,2.8153403E0,4.487776E0,2.1225805E0,0E0,0E0,0E0,0E0,0E0,0E0,0E0,0E0,0E0,0E0,0E0,0E0,0E0,0E0,0E0,0E0,0E0,0E0,0E0,0E0,0E0,0E0,0E0,0E0,0E0,0E0],"parents":[2147483647,0,0,1,1,2,2,3,3,4,4,5,5,6,6,7,7,8,8,9,9,11,11,12,12,13,13,14,14,15,15,17,17,18,18,19,19,20,20,21,21,22,22,23,23,24,24,25,25,26,26,27,27,28,28],"right_children":[2,4,6,8,10,12,14,16,18,20,-1,22,24,26,28,30,-1,32,34,36,38,40,42,44,46,48,50,52,54,-1,-1,-1,-1,-1,-1,-1,-1,-1,-1,-1,-1,-1,-1,-1,-1,-1,-1,-1,-1,-1,-1,-1,-1,-1,-1],"split_conditions":[1.1948831E-2,2.858693E-1,4.4426045E8,-7.692308E-2,8.70475E-1,9.223872E-3,-4.989212E-3,-9.31683E-2,7.44339E-3,-1.7910125E-2,4.277606E-2,-2.499022E-2,7.788053E-1,2.1808174E-2,3.1446574E0,-6.749362E-2,-1.7497396E-2,1.730191E-2,1.854714E-2,-2.7635967E-2,7.1875E-1,-4.5351563E-3,-6.349228E-3,1.3364193E0,2.1827498E-2,1.2447999E-1,6.0301507E-1,1.6828351E0,1.0098753E-1,5.286461E-4,1.3905199E-2,3.3081945E-2,1.3212452E-2,7.61334E-3,2.6686728E-2,-3.1341824E-3,-3.401116E-2,1.8306097E-3,2.3620153E-2,-1.2094512E-3,1.6188394E-2,-1.5399097E-2,2.4458177E-3,-1.9264437E-2,-1.281543E-2,-1.1370871E-2,6.0567367E-3,4.1369643E-2,-1.3629085E-2,-1.1679842E-2,1.47495745E-2,-5.7893707E-3,-3.942704E-2,-2.268948E-3,3.191535E-2],"split_indices":[3,14,5,9,13,2,9,18,3,12,0,17,18,10,16,1,0,12,10,17,11,12,0,16,1,18,11,16,2,0,0,0,0,0,0,0,0,0,0,0,0,0,0,0,0,0,0,0,0,0,0,0,0,0,0],"split_type":[0,0,0,0,0,0,0,0,0,0,0,0,0,0,0,0,0,0,0,0,0,0,0,0,0,0,0,0,0,0,0,0,0,0,0,0,0,0,0,0,0,0,0,0,0,0,0,0,0,0,0,0,0,0,0],"sum_hessian":[5.214587E2,1.6661613E2,3.5484253E2,8.666915E1,7.994698E1,1.8256456E2,1.7227798E2,4.6298914E0,8.203926E1,7.08001E1,9.146878E0,2.825776E1,1.543068E2,7.615621E1,9.612177E1,2.8212817E0,1.8086096E0,6.9734024E1,1.230524E1,6.2276387E0,6.4572464E1,1.2462463E1,1.5795296E1,1.3929393E2,1.5012867E1,3.1591621E1,4.456459E1,3.9474964E1,5.6646805E1,1.1128718E0,1.7084099E0,6.1434357E1,8.2996645E0,9.218665E0,3.0865746E0,1.2189871E0,5.0086517E0,5.2928333E1,1.1644132E1,5.1922455E0,7.270218E0,8.512934E0,7.282362E0,1.0610736E2,3.318657E1,1.0357298E1,4.6555696E0,1.9196968E1,1.2394653E1,3.0775625E1,1.3788963E1,2.017159E1,1.9303373E1,5.268582E1,3.9609847E0],"tree_param":{"num_deleted":"0","num_feature":"19","num_nodes":"55","size_leaf_vector":"1"}},{"base_weights":[-2.5232259E-5,5.365222E-1,-1.0878036E-1,5.8584374E-1,2.2996259E-1,-2.7657977E-1,2.5395736E-2,-8.438065E-2,6.109557E-1,-2.1818083E-2,3.4633186E-1,2.2345286E-2,-3.4754294E-1,3.7778494E-1,-1.8627632E-2,-1.0533366E-2,5.505077E-3,6.414264E-1,2.086572E-1,1.1234105E-2,-1.4830747E-1,-1.7632897E-3,2.2218568E-2,1.1761414E-1,-1.666978E-1,-3.783597E-1,1.1793269E-2,-3.4292406E-1,7.1635914E-1,-3.457483E-1,3.5122443E-2,3.2957274E-2,3.7072038E-3,-3.7418564E-3,1.8180368E-2,7.7560805E-3,-1.56241E-2,-1.1183219E-3,1.4078872E-2,-1.3540583E-2,6.5504895E-3,-1.9339792E-2,3.0484588E-3,1.4641697E-2,-7.3448676E-3,-7.3820464E-3,-3.291557E-2,4.3654863E-2,7.3857256E-3,-3.3338066E-2,1.2167272E-3,2.6640808E-2,-2.2878516E-3],"categories":[],"categories_nodes":[],"categories_segments":[],"categories_sizes":[],"default_left":[0,0,0,0,0,0,0,0,0,0,0,0,0,0,0,0,0,0,0,0,0,0,0,0,0,0,0,0,0,0,0,0,0,0,0,0,0,0,0,0,0,0,0,0,0,0,0,0,0,0,0,0,0],"id":3,"left_children":[1,3,5,7,9,11,13,15,17,19,21,23,25,27,29,-1,-1,31,33,-1,35,-1,-1,37,39,41,43,45,47,49,51,-1,-1,-1,-1,-1,-1,-1,-1,-1,-1,-1,-1,-1,-1,-1,-1,-1,-1,-1,-1,-1,-1],"loss_changes":[2.9192364E1,1.1400986E0,9.372318E0,1.2630634E0,3.981542E-1,3.930171E0,3.607E0,1.0862323E-1,7.1816254E-1,1.9404137E-1,3.5898197E-1,6.7542565E-1,1.6598969E0,6.5455465E0,3.6559567E0,0E0,0E0,5.9573174E-1,3.0728546E-1,0E0,2.4817994E-1,0E0,0E0,5.754708E-1,4.2650598E-1,5.3399277E-1,6.128863E-1,4.5269883E-1,1.4654903E0,3.501679E0,7.2256527E0,0E0,0E0,0E0,0E0,0E0,0E0,0E0,0E0,0E0,0E0,0E0,0E0,0E0,0E0,0E0,0E0,0E0,0E0,0E0,0E0,0E0,0E0],"parents":[2147483647,0,0,1,1,2,2,3,3,4,4,5,5,6,6,7,7,8,8,9,9,10,10,11,11,12,12,13,13,14,14,17,17,18,18,20,20,23,23,24,24,25,25,26,26,27,27,28,28,29,29,30,30],"right_children":[2,4,6,8,10,12,14,16,18,20,22,24,26,28,30,-1,-1,32,34,-1,36,-1,-1,38,40,42,44,46,48,50,52,-1,-1,-1,-1,-1,-1,-1,-1,-1,-1,-1,-1,-1,-1,-1,-1,-1,-1,-1,-1,-1,-1],"split_conditions":[2.858693E-1,7.44339E-3,4.9632003E8,-2.1259842E-2,-1.720729E-1,9.223872E-3,2.4432099E-1,-1.2511333E-2,1.730191E-2,5.2116396E7,-1.8349139E-2,-2.7976722E-2,7.381085E-1,9.909822E-1,1.305483E-2,-1.0533366E-2,5.505077E-3,-2.2513364E-2,4.564134E-3,1.1234105E-2,-4.0904965E-2,-1.7632897E-3,2.2218568E-2,1.936954E-2,-4.008021E-3,3.5367086E0,4.2807695E-1,-2.6350475E-3,-6.756757E-3,7.9675806E-1,1.6828351E0,3.2957274E-2,3.7072038E-3,-3.7418564E-3,1.8180368E-2,7.7560805E-3,-1.56241E-2,-1.1183219E-3,1.4078872E-2,-1.3540583E-2,6.5504895E-3,-1.9339792E-2,3.0484588E-3,1.4641697E-2,-7.3448676E-3,-7.3820464E-3,-3.291557E-2,4.3654863E-2,7.3857256E-3,-3.3338066E-2,1.2167272E-3,2.6640808E-2,-2.2878516E-3],"split_indices":[14,3,5,8,4,2,16,0,12,5,1,17,18,13,10,0,0,17,0,0,17,0,0,10,1,16,14,0,8,13,16,0,0,0,0,0,0,0,0,0,0,0,0,0,0,0,0,0,0,0,0,0,0],"split_type":[0,0,0,0,0,0,0,0,0,0,0,0,0,0,0,0,0,0,0,0,0,0,0,0,0,0,0,0,0,0,0,0,0,0,0,0,0,0,0,0,0,0,0,0,0,0,0,0,0,0,0,0,0],"sum_hessian":[4.982778E2,8.331363E1,4.1496417E2,7.098243E1,1.2331196E1,1.8390854E2,2.3105563E2,2.4782841E0,6.850415E1,4.1546216E0,8.176574E0,3.541436E1,1.4849417E2,2.4817795E1,2.0623784E2,1.4521265E0,1.0261576E0,6.312832E1,5.3758287E0,1.1456697E0,3.008952E0,1.8021976E0,6.3743763E0,2.379875E1,1.1615609E1,1.367164E2,1.1777776E1,7.9283E0,1.6889494E1,2.833849E1,1.7789935E2,6.1059193E1,2.0691261E0,2.0825865E0,3.2932425E0,1.0757961E0,1.9331558E0,1.330416E1,1.0494589E1,8.672884E0,2.9427252E0,1.342579E2,2.4584906E0,3.9453168E0,7.832459E0,5.8031816E0,2.125118E0,1.282036E1,4.0691347E0,1.4746016E1,1.3592474E1,2.4087652E1,1.538117E2],"tree_param":{"num_deleted":"0","num_feature":"19","num_nodes":"53","size_leaf_vector":"1"}},{"base_weights":[-3.4064356E-5,5.3796667E-1,-1.100783E-1,5.884075E-1,2.2485925E-1,6.7776E-2,-2.2104467E-1,6.079796E-1,-2.944897E-2,-4.439322E-2,3.387165E-1,1.9676397E-2,5.547068E-1,-2.760591E-1,3.2819194E-1,6.4118147E-1,2.1394566E-1,-1.005204E-2,8.088811E-3,1.0455964E-1,-1.5006274E-2,8.318696E-4,4.181112E-1,5.3101268E-2,-3.9071318E-2,6.331834E-1,-5.295059E-3,-3.760113E-1,-7.414457E-2,6.962168E-1,8.020158E-2,3.2566976E-2,3.051959E-3,-1.2181796E-2,1.6875794E-2,-4.6889274E-3,1.4270964E-2,1.1893149E-2,2.7871922E-2,-1.9651584E-3,1.9262007E-2,1.38917295E-2,3.625321E-2,-1.6656728E-2,-3.4698036E-2,-1.1715516E-2,5.691903E-3,1.29737845E-2,3.979684E-2,-2.0346602E-2,1.32996235E-2],"categories":[],"categories_nodes":[],"categories_segments":[],"categories_sizes":[],"default_left":[0,0,0,0,0,0,0,0,0,0,0,0,0,0,0,0,0,0,0,0,0,0,0,0,0,0,0,0,0,0,0,0,0,0,0,0,0,0,0,0,0,0,0,0,0,0,0,0,0,0,0],"id":4,"left_children":[1,3,5,7,9,11,13,15,17,19,21,23,25,27,29,31,33,-1,-1,35,-1,-1,37,39,-1,41,-1,43,45,47,49,-1,-1,-1,-1,-1,-1,-1,-1,-1,-1,-1,-1,-1,-1,-1,-1,-1,-1,-1,-1],"loss_changes":[2.8951807E1,1.1791744E0,8.027309E0,8.752804E-1,4.178605E-1,3.6602228E0,7.651658E0,7.625084E-1,1.352525E-1,2.1381243E-1,2.3215532E-1,3.889038E0,7.9567957E-1,4.5734634E0,2.0651605E0,3.3106232E-1,4.69274E-1,0E0,0E0,1.619323E-1,0E0,0E0,5.4755926E-2,4.2772427E0,0E0,2.1338606E-1,0E0,1.8444786E0,2.3371227E0,1.9525719E-1,1.4670986E0,0E0,0E0,0E0,0E0,0E0,0E0,0E0,0E0,0E0,0E0,0E0,0E0,0E0,0E0,0E0,0E0,0E0,0E0,0E0,0E0],"parents":[2147483647,0,0,1,1,2,2,3,3,4,4,5,5,6,6,7,7,8,8,9,9,10,10,11,11,12,12,13,13,14,14,15,15,16,16,19,19,22,22,23,23,25,25,27,27,28,28,29,29,30,30],"right_children":[2,4,6,8,10,12,14,16,18,20,22,24,26,28,30,32,34,-1,-1,36,-1,-1,38,40,-1,42,-1,44,46,48,50,-1,-1,-1,-1,-1,-1,-1,-1,-1,-1,-1,-1,-1,-1,-1,-1,-1,-1,-1,-1],"split_conditions":[2.858693E-1,7.44339E-3,2.4709303E-2,2.734375E-2,-1.8349139E-2,2.9294637E-1,7.375956E-2,1.730191E-2,1.9534647E-1,-1.939298E-2,7.545661E-3,1.4622892E-1,8.125E-1,4.041863E-1,-6.315789E-1,9.539259E-3,5.1457188E7,-1.005204E-2,8.088811E-3,-3.9117024E-3,-1.5006274E-2,8.318696E-4,1.07001384E8,1E0,-3.9071318E-2,9.449752E8,-5.295059E-3,8.2179604E9,1.527722E9,8.895396E-2,0E0,3.2566976E-2,3.051959E-3,-1.2181796E-2,1.6875794E-2,-4.6889274E-3,1.4270964E-2,1.1893149E-2,2.7871922E-2,-1.9651584E-3,1.9262007E-2,1.38917295E-2,3.625321E-2,-1.6656728E-2,-3.4698036E-2,-1.1715516E-2,5.691903E-3,1.29737845E-2,3.979684E-2,-2.0346602E-2,1.32996235E-2],"split_indices":[14,3,10,10,1,15,2,12,13,1,2,9,11,18,11,2,5,0,0,12,0,0,5,13,0,5,0,5,5,3,11,0,0,0,0,0,0,0,0,0,0,0,0,0,0,0,0,0,0,0,0],"split_type":[0,0,0,0,0,0,0,0,0,0,0,0,0,0,0,0,0,0,0,0,0,0,0,0,0,0,0,0,0,0,0,0,0,0,0,0,0,0,0,0,0,0,0,0,0,0,0,0,0,0,0],"sum_hessian":[4.8701852E2,8.204008E1,4.0497845E2,6.990009E1,1.2139983E1,1.5574434E2,2.4923412E2,6.7769325E1,2.1307676E0,3.7892258E0,8.350758E0,1.4268968E2,1.30546465E1,2.2699454E2,2.2239584E1,6.1924267E1,5.845055E0,1.0959816E0,1.0347859E0,2.7680779E0,1.0211478E0,1.8906286E0,6.460129E0,1.3787093E2,4.8187532E0,1.17056E1,1.3490468E0,1.5125679E2,7.573774E1,8.225408E0,1.4014176E1,6.073805E1,1.1862177E0,1.0362334E0,4.8088217E0,1.5498893E0,1.2181884E0,3.9967465E0,2.463382E0,1.08552246E2,2.9318682E1,3.2315269E0,8.474073E0,1.3508745E2,1.6169338E1,4.0761505E1,3.497624E1,2.1985435E0,6.0268636E0,3.5406125E0,1.0473564E1],"tree_param":{"num_deleted":"0","num_feature":"19","num_nodes":"51","size_leaf_vector":"1"}},{"base_weights":[5.5727618E-5,5.0896543E-1,-1.1387548E-1,5.9426296E-1,-9.063218E-3,-2.3021235E-1,7.565847E-2,6.099406E-1,-7.6578515E-5,-2.373659E-1,4.3036792E-1,-1.6944608E-2,-3.8773322E-1,6.4618927E-3,3.2783735E-1,2.0006017E-1,6.338813E-1,1.4329877E-1,-3.6190037E-2,7.934551E-3,2.6857039E-2,1.723182E-1,-2.0726545E-1,-4.0723744E-1,3.115592E-2,1.2436126E-1,-1.594242E-1,1.279837E-1,6.068521E-1,-1.284135E-4,1.47113865E-2,3.3067096E-2,1.3983597E-2,1.435134E-3,9.006594E-3,-3.417052E-3,1.9587057E-2,4.2759403E-4,-2.5338827E-2,-1.8395796E-2,-4.1602883E-2,3.2669809E-3,2.4844203E-2,-1.0744981E-2,1.1144163E-2,1.8801777E-2,-5.216373E-3,3.2174807E-2,6.5608146E-3],"categories":[],"categories_nodes":[],"categories_segments":[],"categories_sizes":[],"default_left":[0,0,0,0,0,0,0,0,0,0,0,0,0,0,0,0,0,0,0,0,0,0,0,0,0,0,0,0,0,0,0,0,0,0,0,0,0,0,0,0,0,0,0,0,0,0,0,0,0],"id":5,"left_children":[1,3,5,7,9,11,13,15,-1,17,19,21,23,25,27,29,31,33,-1,-1,-1,35,37,39,-1,41,43,45,47,-1,-1,-1,-1,-1,-1,-1,-1,-1,-1,-1,-1,-1,-1,-1,-1,-1,-1,-1,-1],"loss_changes":[2.7868658E1,3.8903618E0,8.677082E0,7.062168E-1,1.4480219E0,8.177137E0,2.6175847E0,5.951481E-1,0E0,1.8578289E0,5.8124363E-2,3.8011618E0,3.0153503E0,2.3437443E0,1.7236888E0,1.06108576E-1,4.8669624E-1,2.0784333E-2,0E0,0E0,0E0,2.8233647E0,3.4028397E0,1.9994869E0,0E0,1.5070412E0,1.1041609E0,1.1968929E0,1.4588594E-1,0E0,0E0,0E0,0E0,0E0,0E0,0E0,0E0,0E0,0E0,0E0,0E0,0E0,0E0,0E0,0E0,0E0,0E0,0E0,0E0],"parents":[2147483647,0,0,1,1,2,2,3,3,4,4,5,5,6,6,7,7,9,9,10,10,11,11,12,12,13,13,14,14,15,15,16,16,17,17,21,21,22,22,23,23,25,25,26,26,27,27,28,28],"right_children":[2,4,6,8,10,12,14,16,-1,18,20,22,24,26,28,30,32,34,-1,-1,-1,36,38,40,-1,42,44,46,48,-1,-1,-1,-1,-1,-1,-1,-1,-1,-1,-1,-1,-1,-1,-1,-1,-1,-1,-1,-1],"split_conditions":[7.44339E-3,3.9795548E9,3.4546254E0,2.628121E-2,1.5037594E-2,2.4709303E-2,2.824833E0,1.2687846E-1,-7.6578515E-5,-3.7760608E-2,-1.4458695E-1,-3.7821482E-3,2.7763173E-1,3.8797285E-2,5.6471948E-2,-9.5238096E-1,8.486212E-3,-6.8728793E-3,-3.6190037E-2,7.934551E-3,2.6857039E-2,7.103021E-1,6.3446765E8,3.22341E0,3.115592E-2,2.1978907E-2,4.113055E1,-5.9276824E-3,2.7763173E-1,-1.284135E-4,1.47113865E-2,3.3067096E-2,1.3983597E-2,1.435134E-3,9.006594E-3,-3.417052E-3,1.9587057E-2,4.2759403E-4,-2.5338827E-2,-1.8395796E-2,-4.1602883E-2,3.2669809E-3,2.4844203E-2,-1.0744981E-2,1.1144163E-2,1.8801777E-2,-5.216373E-3,3.2174807E-2,6.5608146E-3],"split_indices":[3,5,16,10,10,10,14,16,0,9,4,7,1,10,4,11,2,0,0,0,0,13,5,14,0,0,16,7,1,0,0,0,0,0,0,0,0,0,0,0,0,0,0,0,0,0,0,0,0],"split_type":[0,0,0,0,0,0,0,0,0,0,0,0,0,0,0,0,0,0,0,0,0,0,0,0,0,0,0,0,0,0,0,0,0,0,0,0,0,0,0,0,0,0,0,0,0,0,0,0,0],"sum_hessian":[4.7865445E2,8.6922104E1,3.9173236E2,7.4506805E1,1.2415299E1,2.4260536E2,1.4912698E2,7.257338E1,1.9334263E0,8.473039E0,3.9422607E0,1.0353574E2,1.3906961E2,1.17822685E2,3.1304306E1,4.521346E0,6.805203E1,5.149025E0,3.3240137E0,1.8136894E0,2.1285715E0,5.1959595E1,5.157615E1,1.3702292E2,2.046699E0,6.901929E1,4.88034E1,1.9089506E1,1.22148E1,1.7431616E0,2.7781847E0,6.235107E1,5.7009616E0,1.6852121E0,3.4638128E0,2.5109009E1,2.6850584E1,3.0540888E1,2.1035261E1,1.2712247E2,9.900452E0,6.0594265E1,8.425017E0,4.300148E1,5.8019185E0,8.932789E0,1.0156718E1,1.1013388E1,1.2014122E0],"tree_param":{"num_deleted":"0","num_feature":"19","num_nodes":"49","size_leaf_vector":"1"}},{"base_weights":[2.4223818E-5,5.128375E-1,-1.06216855E-1,5.2654094E-1,-3.3048026E-3,-2.7919358E-1,8.678641E-3,5.556153E-1,2.0141348E-1,1.2643772E-1,-3.393559E-1,3.7839574E-1,-3.080386E-2,5.929515E-1,2.7267885E-1,-7.122668E-2,1.7628053E-2,2.3449485E-1,-2.452094E-1,1.5115478E-2,-3.577304E-1,6.449663E-1,-1.9547723E-1,-1.02264404E-1,1.5563728E-1,3.046321E-2,5.333198E-3,8.979148E-3,2.5613038E-2,-1.1123143E-2,4.8692543E-3,-1.6245669E-3,1.4194749E-2,-1.4875427E-2,-1.7489855E-3,-1.1727006E-2,1.3735055E-2,-1.1137941E-2,-1.939754E-2,-1.4010612E-3,4.1278362E-2,-2.9731218E-2,4.5397473E-4,6.6682445E-3,-9.509734E-3,1.3978918E-2,-3.2845822E-3],"categories":[],"categories_nodes":[],"categories_segments":[],"categories_sizes":[],"default_left":[0,0,0,0,0,0,0,0,0,0,0,0,0,0,0,0,0,0,0,0,0,0,0,0,0,0,0,0,0,0,0,0,0,0,0,0,0,0,0,0,0,0,0,0,0,0,0],"id":6,"left_children":[1,3,5,7,-1,9,11,13,15,17,19,21,23,25,27,29,-1,31,33,35,37,39,41,43,45,-1,-1,-1,-1,-1,-1,-1,-1,-1,-1,-1,-1,-1,-1,-1,-1,-1,-1,-1,-1,-1,-1],"loss_changes":[2.5680946E1,6.765747E-1,7.7627606E0,6.361561E-1,0E0,3.8468437E0,3.4507463E0,5.996647E-1,3.5743973E-1,8.952818E-1,8.9129543E-1,3.61509E0,2.8642724E0,4.3333244E-1,1.3669598E-1,1.1622421E-1,0E0,2.2913337E-1,4.663509E-2,5.6100893E-1,4.4119072E-1,1.9442201E0,6.5869975E-1,3.240017E0,1.6542375E0,0E0,0E0,0E0,0E0,0E0,0E0,0E0,0E0,0E0,0E0,0E0,0E0,0E0,0E0,0E0,0E0,0E0,0E0,0E0,0E0,0E0,0E0],"parents":[2147483647,0,0,1,1,2,2,3,3,5,5,6,6,7,7,8,8,9,9,10,10,11,11,12,12,13,13,14,14,15,15,17,17,18,18,19,19,20,20,21,21,22,22,23,23,24,24],"right_children":[2,4,6,8,-1,10,12,14,16,18,20,22,24,26,28,30,-1,32,34,36,38,40,42,44,46,-1,-1,-1,-1,-1,-1,-1,-1,-1,-1,-1,-1,-1,-1,-1,-1,-1,-1,-1,-1,-1,-1],"split_conditions":[2.858693E-1,-2.0762933E-2,4.7486582E8,1.730191E-2,-3.3048026E-3,9.223872E-3,2.4432099E-1,7.44339E-3,2.8277202E-2,-2.7976722E-2,4.2807695E-1,1.05129376E-1,6.0301507E-1,8.486212E-3,1.854714E-2,2.668968E-1,1.7628053E-2,-5.981386E-2,5.185894E-1,7.6462686E-1,-1.028522E-1,9.909822E-1,1.2213324E-2,1.6617117E-2,4.4436205E-2,3.046321E-2,5.333198E-3,8.979148E-3,2.5613038E-2,-1.1123143E-2,4.8692543E-3,-1.6245669E-3,1.4194749E-2,-1.4875427E-2,-1.7489855E-3,-1.1727006E-2,1.3735055E-2,-1.1137941E-2,-1.939754E-2,-1.4010612E-3,4.1278362E-2,-2.9731218E-2,4.5397473E-4,6.6682445E-3,-9.509734E-3,1.3978918E-2,-3.2845822E-3],"split_indices":[14,17,5,12,0,2,16,3,12,17,14,18,11,2,10,13,0,9,18,18,9,13,3,3,0,0,0,0,0,0,0,0,0,0,0,0,0,0,0,0,0,0,0,0,0,0,0],"split_type":[0,0,0,0,0,0,0,0,0,0,0,0,0,0,0,0,0,0,0,0,0,0,0,0,0,0,0,0,0,0,0,0,0,0,0,0,0,0,0,0,0,0,0,0,0,0,0],"sum_hessian":[4.6936728E2,7.9895226E1,3.8947205E2,7.813623E1,1.7589946E0,1.5487527E2,2.3459677E2,7.107176E1,7.064471E0,1.9861546E1,1.3501372E2,2.1807339E1,2.1278943E2,6.1818512E1,9.253247E0,2.7081919E0,4.356279E0,1.5673488E1,4.1880584E0,6.662451E0,1.2835127E2,1.480593E1,7.0014086E0,1.5415518E2,5.863425E1,5.9567413E1,2.2511E0,7.9238095E0,1.329438E0,1.2592918E0,1.4489E0,2.5006814E0,1.3172806E1,3.0212886E0,1.1667699E0,3.4453652E0,3.2170858E0,2.5012148E1,1.0333913E2,3.3113666E0,1.1494564E1,1.7262065E0,5.275202E0,4.1752655E1,1.1240253E2,3.741769E1,2.121656E1],"tree_param":{"num_deleted":"0","num_feature":"19","num_nodes":"47","size_leaf_vector":"1"}},{"base_weights":[-3.3697324E-5,4.725753E-1,-1.07012145E-1,5.4653305E-1,-2.9056294E-2,-1.8947622E-1,1.8900277E-1,5.6826127E-1,-1.3726725E-1,-3.1342003E-1,3.0635664E-1,-5.882233E-3,-3.2857284E-1,1.1569398E-1,4.9800044E-1,-2.4081406E-4,5.8470047E-1,-1.91068E-2,8.845385E-3,5.717975E-3,-3.4143656E-2,2.0770323E-2,9.093792E-4,-5.729992E-2,3.7473547E-1,-3.6531627E-1,3.1401706E-1,2.5275967E-1,-5.393279E-2,8.481361E-2,5.545429E-1,3.0345682E-2,8.859033E-3,-4.029479E-4,-2.9254222E-2,1.0240155E-2,3.6123823E-2,-2.1155996E-2,-8.477977E-3,-3.1963678E-3,2.9168198E-2,1.4674385E-2,-1.0919368E-2,-7.996519E-3,1.4381384E-2,9.698697E-3,-3.1237982E-3,9.2852255E-3,3.056047E-2],"categories":[],"categories_nodes":[],"categories_segments":[],"categories_sizes":[],"default_left":[0,0,0,0,0,0,0,0,0,0,0,0,0,0,0,0,0,0,0,0,0,0,0,0,0,0,0,0,0,0,0,0,0,0,0,0,0,0,0,0,0,0,0,0,0,0,0,0,0],"id":7,"left_children":[1,3,5,7,9,11,13,15,17,19,21,23,25,27,29,-1,31,-1,-1,-1,-1,-1,-1,33,35,37,39,41,43,45,47,-1,-1,-1,-1,-1,-1,-1,-1,-1,-1,-1,-1,-1,-1,-1,-1,-1,-1],"loss_changes":[2.3659492E1,3.2203274E0,9.3505E0,1.1971874E0,1.2451284E0,7.6322565E0,1.837045E0,6.9244003E-1,3.0803537E-1,1.1866755E0,1.8204373E-1,2.5632515E0,4.1301003E0,1.6156802E0,3.2059908E-1,0E0,5.367012E-1,0E0,0E0,0E0,0E0,0E0,0E0,2.9914713E0,7.73273E-1,1.7537575E0,1.0284119E0,7.987654E-1,1.190753E0,6.1554737E-2,1.7202473E-1,0E0,0E0,0E0,0E0,0E0,0E0,0E0,0E0,0E0,0E0,0E0,0E0,0E0,0E0,0E0,0E0,0E0,0E0],"parents":[2147483647,0,0,1,1,2,2,3,3,4,4,5,5,6,6,7,7,8,8,9,9,10,10,11,11,12,12,13,13,14,14,16,16,23,23,24,24,25,25,26,26,27,27,28,28,29,29,30,30],"right_children":[2,4,6,8,10,12,14,16,18,20,22,24,26,28,30,-1,32,-1,-1,-1,-1,-1,-1,34,36,38,40,42,44,46,48,-1,-1,-1,-1,-1,-1,-1,-1,-1,-1,-1,-1,-1,-1,-1,-1,-1,-1],"split_conditions":[7.44339E-3,3.9795548E9,8.049745E0,2.734375E-2,1.1428571E-2,2.4709303E-2,2.9808748E0,1.2687846E-1,1.0990104E8,-3.7760608E-2,-9.478118E-3,3.5661045E-1,9.173481E-2,-9.177624E-3,7.7322565E-2,-2.4081406E-4,8.486212E-3,-1.91068E-2,8.845385E-3,5.717975E-3,-3.4143656E-2,2.0770323E-2,9.093792E-4,8.2179604E9,6.1956183E9,4.2585865E-1,7.233061E8,4.3003682E-2,1.27994E-1,5.4545456E-1,-6.5817006E-2,3.0345682E-2,8.859033E-3,-4.029479E-4,-2.9254222E-2,1.0240155E-2,3.6123823E-2,-2.1155996E-2,-8.477977E-3,-3.1963678E-3,2.9168198E-2,1.4674385E-2,-1.0919368E-2,-7.996519E-3,1.4381384E-2,9.698697E-3,-3.1237982E-3,9.2852255E-3,3.056047E-2],"split_indices":[3,5,16,10,10,10,14,16,5,9,8,15,2,17,10,0,2,0,0,0,0,0,0,5,5,18,5,2,1,11,7,0,0,0,0,0,0,0,0,0,0,0,0,0,0,0,0,0,0],"split_type":[0,0,0,0,0,0,0,0,0,0,0,0,0,0,0,0,0,0,0,0,0,0,0,0,0,0,0,0,0,0,0,0,0,0,0,0,0,0,0,0,0,0,0,0,0,0,0,0,0],"sum_hessian":[4.659581E2,8.5374306E1,3.8058377E2,7.432651E1,1.1047796E1,2.979426E2,8.264119E1,7.220123E1,2.1252759E0,6.014371E0,5.0334253E0,1.288782E2,1.6906439E2,6.790528E1,1.47359085E1,2.0331135E0,7.016812E1,1.0728093E0,1.0524664E0,3.10715E0,2.9072204E0,3.331262E0,1.7021632E0,1.1428842E2,1.458978E1,1.6032828E2,8.736116E0,3.728628E1,3.0618998E1,2.0747287E0,1.266118E1,6.6077095E1,4.09102E0,1.0546416E2,8.82427E0,1.0867873E1,3.7219067E0,1.2288188E2,3.7446396E1,3.9525716E0,4.7835445E0,3.4666622E1,2.6196597E0,2.377316E1,6.8458376E0,1.0095598E0,1.0651689E0,2.255757E0,1.0405423E1],"tree_param":{"num_deleted":"0","num_feature":"19","num_nodes":"49","size_leaf_vector":"1"}},{"base_weights":[-1.9995536E-4,4.7801945E-1,-1.0158325E-1,5.1574886E-1,2.3984489E-1,-3.0717155E-1,5.46127E-2,5.4757357E-1,1.4672032E-1,-8.876998E-2,3.2268748E-1,6.977657E-2,-3.6116335E-1,-8.982889E-3,2.361414E-1,5.6359524E-1,9.562439E-2,-1.3282353E-2,2.6433685E-1,-1.607551E-2,8.219092E-3,-1.4555805E-3,3.879667E-1,-8.997882E-2,2.3419793E-1,-7.196139E-2,-3.835191E-1,1.10127285E-1,-2.1361917E-1,3.4673655E-1,9.759344E-2,6.4853444E-3,2.8986443E-2,-9.614199E-3,1.7938832E-2,1.9435392E-3,1.5605372E-2,9.577027E-3,2.6577784E-2,2.2836728E-3,-1.4834269E-2,1.631697E-2,1.406601E-3,-7.980122E-3,1.3294198E-2,-1.1810412E-2,-2.0753078E-2,3.145053E-2,8.130789E-4,-2.8838908E-2,-4.302159E-3,2.4342155E-2,2.4077601E-3,7.3121027E-3,-1.537672E-2],"categories":[],"categories_nodes":[],"categories_segments":[],"categories_sizes":[],"default_left":[0,0,0,0,0,0,0,0,0,0,0,0,0,0,0,0,0,0,0,0,0,0,0,0,0,0,0,0,0,0,0,0,0,0,0,0,0,0,0,0,0,0,0,0,0,0,0,0,0,0,0,0,0,0,0],"id":8,"left_children":[1,3,5,7,9,11,13,15,17,19,21,23,25,27,29,31,33,-1,35,-1,-1,-1,37,39,41,43,45,47,49,51,53,-1,-1,-1,-1,-1,-1,-1,-1,-1,-1,-1,-1,-1,-1,-1,-1,-1,-1,-1,-1,-1,-1,-1,-1],"loss_changes":[2.2483065E1,6.0521126E-1,1.2303188E1,7.318058E-1,3.8150197E-1,3.3901854E0,2.5219474E0,4.044361E-1,4.027558E-1,2.528161E-1,2.5398207E-1,5.872117E-1,9.084854E-1,3.9869385E0,8.344333E-1,3.5129356E-1,3.2441667E-1,0E0,5.0724536E-2,0E0,0E0,0E0,1.515603E-1,3.403337E-1,1.9776076E-1,3.8649428E-1,5.253639E-1,5.0279236E0,2.7378397E0,1.2784033E0,5.6816155E-1,0E0,0E0,0E0,0E0,0E0,0E0,0E0,0E0,0E0,0E0,0E0,0E0,0E0,0E0,0E0,0E0,0E0,0E0,0E0,0E0,0E0,0E0,0E0,0E0],"parents":[2147483647,0,0,1,1,2,2,3,3,4,4,5,5,6,6,7,7,8,8,9,9,10,10,11,11,12,12,13,13,14,14,15,15,16,16,18,18,22,22,23,23,24,24,25,25,26,26,27,27,28,28,29,29,30,30],"right_children":[2,4,6,8,10,12,14,16,18,20,22,24,26,28,30,32,34,-1,36,-1,-1,-1,38,40,42,44,46,48,50,52,54,-1,-1,-1,-1,-1,-1,-1,-1,-1,-1,-1,-1,-1,-1,-1,-1,-1,-1,-1,-1,-1,-1,-1,-1],"split_conditions":[2.858693E-1,7.44339E-3,5.8548435E8,1.730191E-2,-1.179941E-2,-3.24994E-2,6.385542E-1,8.486212E-3,5.1457188E7,1.07001384E8,-1.0038125E-2,1.1665727E-2,4.550048E-1,1.1816222E-1,2.1832637E-1,-7.527389E-2,1.1885962E8,-1.3282353E-2,-3.4330096E-2,-1.607551E-2,8.219092E-3,-1.4555805E-3,1.305483E-2,9.823517E-3,-2.4204489E-2,8.3189744E-1,-1.0439541E-1,5.94848E-1,2.7458102E-1,5.1293295E-2,2.2134277E-1,6.4853444E-3,2.8986443E-2,-9.614199E-3,1.7938832E-2,1.9435392E-3,1.5605372E-2,9.577027E-3,2.6577784E-2,2.2836728E-3,-1.4834269E-2,1.631697E-2,1.406601E-3,-7.980122E-3,1.3294198E-2,-1.1810412E-2,-2.0753078E-2,3.145053E-2,8.130789E-4,-2.8838908E-2,-4.302159E-3,2.4342155E-2,2.4077601E-3,7.3121027E-3,-1.537672E-2],"split_indices":[14,3,5,12,8,17,11,2,5,5,12,12,14,18,4,9,5,0,9,0,0,0,10,2,1,18,9,16,18,0,9,0,0,0,0,0,0,0,0,0,0,0,0,0,0,0,0,0,0,0,0,0,0,0,0],"split_type":[0,0,0,0,0,0,0,0,0,0,0,0,0,0,0,0,0,0,0,0,0,0,0,0,0,0,0,0,0,0,0,0,0,0,0,0,0,0,0,0,0,0,0,0,0,0,0,0,0,0,0,0,0,0,0],"sum_hessian":[4.6172498E2,8.011447E1,3.816105E2,6.815289E1,1.1961578E1,1.643384E2,2.1727213E2,6.2296665E1,5.85623E0,2.3939307E0,9.567648E0,2.0553074E1,1.4378531E2,1.6160648E2,5.5665653E1,5.9925266E1,2.3713975E0,1.0203309E0,4.835899E0,1.1065618E0,1.2873689E0,1.5842016E0,7.983446E0,1.0654085E1,9.898988E0,1.0620019E1,1.331653E2,1.0244145E2,5.9165024E1,3.0119934E1,2.554572E1,2.4724348E0,5.745283E1,1.2610352E0,1.1103622E0,1.1625645E0,3.6733344E0,4.357054E0,3.6263916E0,6.902998E0,3.751087E0,6.437032E0,3.461956E0,8.851439E0,1.76858E0,2.498197E1,1.0818333E2,1.4819436E1,8.762202E1,1.4465718E1,4.4699306E1,2.007119E1,1.0048743E1,2.337752E1,2.1681998E0],"tree_param":{"num_deleted":"0","num_feature":"19","num_nodes":"55","size_leaf_vector":"1"}},{"base_weights":[2.1395654E-5,4.664412E-1,-9.911538E-2,4.8031095E-1,-2.7012243E-3,-3.162997E-1,5.1705196E-2,4.0276584E-1,6.027795E-1,5.540593E-2,-3.753986E-1,3.5904443E-1,2.1152606E-2,4.7972563E-1,9.887084E-2,6.5832764E-1,3.0651104E-1,-7.896359E-2,2.292346E-1,-3.921195E-1,3.7601547E-4,-4.3424852E-2,4.1476646E-1,-4.2549618E-2,2.3364289E-1,2.5347099E-2,1.119938E-2,8.735967E-3,-1.5488273E-2,4.2322366E-3,3.4152083E-2,8.315141E-4,2.1772886E-2,-1.634437E-2,3.2012132E-3,-4.125256E-3,1.3986336E-2,-1.2750871E-2,-2.1500668E-2,1.6664136E-2,-1.0788108E-2,1.0016887E-2,-1.4812377E-2,2.7484564E-2,7.400445E-3,1.4743759E-2,-4.637295E-3,-2.4475956E-2,1.5269646E-2],"categories":[],"categories_nodes":[],"categories_segments":[],"categories_sizes":[],"default_left":[0,0,0,0,0,0,0,0,0,0,0,0,0,0,0,0,0,0,0,0,0,0,0,0,0,0,0,0,0,0,0,0,0,0,0,0,0,0,0,0,0,0,0,0,0,0,0,0,0],"id":9,"left_children":[1,3,5,7,-1,9,11,13,15,17,19,21,23,25,27,29,31,33,35,37,39,41,43,45,47,-1,-1,-1,-1,-1,-1,-1,-1,-1,-1,-1,-1,-1,-1,-1,-1,-1,-1,-1,-1,-1,-1,-1,-1],"loss_changes":[2.1313148E1,6.091995E-1,1.2467981E1,5.05579E-1,0E0,3.4462204E0,2.1070557E0,1.1515036E0,2.678585E-1,5.380939E-1,8.463135E-1,4.732771E-1,2.7970483E0,1.6935158E-1,4.1423005E-1,2.7055168E-1,2.3112363E-1,4.9242306E-1,1.7988992E-1,5.601902E-1,5.566025E-1,2.6728633E-1,5.6385255E-1,2.7247689E0,2.621601E0,0E0,0E0,0E0,0E0,0E0,0E0,0E0,0E0,0E0,0E0,0E0,0E0,0E0,0E0,0E0,0E0,0E0,0E0,0E0,0E0,0E0,0E0,0E0,0E0],"parents":[2147483647,0,0,1,1,2,2,3,3,5,5,6,6,7,7,8,8,9,9,10,10,11,11,12,12,13,13,14,14,15,15,16,16,17,17,18,18,19,19,20,20,21,21,22,22,23,23,24,24],"right_children":[2,4,6,8,-1,10,12,14,16,18,20,22,24,26,28,30,32,34,36,38,40,42,44,46,48,-1,-1,-1,-1,-1,-1,-1,-1,-1,-1,-1,-1,-1,-1,-1,-1,-1,-1,-1,-1,-1,-1,-1,-1],"split_conditions":[2.858693E-1,1.7562285E-2,5.8548435E8,1.6828351E0,-2.7012243E-3,-3.24994E-2,-3.0133065E-2,7.121973E-1,-7.16685E-3,3.434912E-2,8.3189744E-1,-1.1988428E-2,7.183291E-2,8.486212E-3,7.44339E-3,-2.3029517E-2,6.147349E-3,6.349116E-1,-4.321859E-1,-9.913605E-2,1.3562234E-2,-3.9828274E-2,1.543272E-1,2.4432099E-1,7.547325E-3,2.5347099E-2,1.119938E-2,8.735967E-3,-1.5488273E-2,4.2322366E-3,3.4152083E-2,8.315141E-4,2.1772886E-2,-1.634437E-2,3.2012132E-3,-4.125256E-3,1.3986336E-2,-1.2750871E-2,-2.1500668E-2,1.6664136E-2,-1.0788108E-2,1.0016887E-2,-1.4812377E-2,2.7484564E-2,7.400445E-3,1.4743759E-2,-4.637295E-3,-2.4475956E-2,1.5269646E-2],"split_indices":[14,9,5,16,0,17,17,16,9,15,18,12,2,2,3,12,2,16,18,9,0,1,4,16,17,0,0,0,0,0,0,0,0,0,0,0,0,0,0,0,0,0,0,0,0,0,0,0,0],"split_type":[0,0,0,0,0,0,0,0,0,0,0,0,0,0,0,0,0,0,0,0,0,0,0,0,0,0,0,0,0,0,0,0,0,0,0,0,0,0,0,0,0,0,0,0,0,0,0,0,0],"sum_hessian":[4.5893112E2,7.9796875E1,3.7913425E2,7.7800735E1,1.9961401E0,1.5493208E2,2.2420216E2,5.0263454E1,2.7537277E1,2.126256E1,1.3366953E2,1.9300451E1,2.049017E2,3.9644985E1,1.0618468E1,2.2160318E1,5.37696E0,1.2300226E1,8.962333E0,1.2793336E2,5.736161E0,2.3740244E0,1.6926428E1,1.582576E2,4.664411E1,3.494389E1,4.7010956E0,9.4389105E0,1.1795578E0,1.0979817E0,2.1062336E1,2.0030158E0,3.373944E0,4.028745E0,8.2714815E0,1.1608975E0,7.801435E0,2.9376692E1,9.855667E1,2.0447488E0,3.6914124E0,1.3143606E0,1.0596638E0,1.0536482E1,6.389946E0,1.9862858E1,1.3839474E2,3.6846187E0,4.295949E1],"tree_param":{"num_deleted":"0","num_feature":"19","num_nodes":"49","size_leaf_vector":"1"}},{"base_weights":[-1.5188755E-4,4.7008032E-1,-9.969275E-2,-1.1869884E-2,4.830103E-1,-3.1755194E-1,4.6372864E-2,5.190288E-1,1.6564384E-1,8.805385E-2,-3.7830967E-1,-3.7399046E-2,2.0406881E-1,5.3262794E-1,-5.172177E-3,-1.5020697E-1,1.6654221E-2,-1.0744724E-1,2.691632E-1,-3.942468E-1,-1.6342297E-3,9.470603E-2,-1.6914316E-1,2.9232708E-1,2.3694176E-2,2.8125694E-2,1.3511501E-2,-1.5003494E-2,3.0437924E-3,7.4040066E-3,-1.2561196E-2,1.7321642E-2,-5.0233556E-3,-1.2623501E-2,-2.1746967E-2,1.5556471E-2,-1.0872631E-2,1.117347E-2,-1.4026672E-2,-2.2012984E-2,1.8767174E-3,2.054084E-2,8.3913095E-3,-2.0145787E-2,5.5572526E-3],"categories":[],"categories_nodes":[],"categories_segments":[],"categories_sizes":[],"default_left":[0,0,0,0,0,0,0,0,0,0,0,0,0,0,0,0,0,0,0,0,0,0,0,0,0,0,0,0,0,0,0,0,0,0,0,0,0,0,0,0,0,0,0,0,0],"id":10,"left_children":[1,3,5,-1,7,9,11,13,15,17,19,21,23,25,-1,27,-1,29,31,33,35,37,39,41,43,-1,-1,-1,-1,-1,-1,-1,-1,-1,-1,-1,-1,-1,-1,-1,-1,-1,-1,-1,-1],"loss_changes":[2.1509811E1,8.490658E-1,1.2083294E1,0E0,8.190403E-1,3.7876825E0,3.0184257E0,6.5301514E-1,5.5447245E-1,7.603889E-1,7.958927E-1,2.6211698E0,1.2542679E0,3.9133072E-1,0E0,1.4460489E-1,0E0,4.2844746E-1,3.492478E-1,6.2459946E-1,4.9900052E-1,3.704922E0,4.2361135E0,7.1448326E-1,1.0564318E0,0E0,0E0,0E0,0E0,0E0,0E0,0E0,0E0,0E0,0E0,0E0,0E0,0E0,0E0,0E0,0E0,0E0,0E0,0E0,0E0],"parents":[2147483647,0,0,1,1,2,2,4,4,5,5,6,6,7,7,8,8,9,9,10,10,11,11,12,12,13,13,15,15,17,17,18,18,19,19,20,20,21,21,22,22,23,23,24,24],"right_children":[2,4,6,-1,8,10,12,14,16,18,20,22,24,26,-1,28,-1,30,32,34,36,38,40,42,44,-1,-1,-1,-1,-1,-1,-1,-1,-1,-1,-1,-1,-1,-1,-1,-1,-1,-1,-1,-1],"split_conditions":[2.858693E-1,-7.585005E-2,5.8548435E8,-1.1869884E-2,1.6428133E-2,-3.24994E-2,6.0301507E-1,-2.0762933E-2,-4.8638132E-4,3.434912E-2,8.3189744E-1,-4.989212E-3,2.1832637E-1,7.44339E-3,-5.172177E-3,5.1457188E7,1.6654221E-2,7.545661E-3,2.2664608E-2,-9.913605E-2,4.550048E-1,2.5404157E-2,3.915839E-2,2.9718356E-2,1.03866566E9,2.8125694E-2,1.3511501E-2,-1.5003494E-2,3.0437924E-3,7.4040066E-3,-1.2561196E-2,1.7321642E-2,-5.0233556E-3,-1.2623501E-2,-2.1746967E-2,1.5556471E-2,-1.0872631E-2,1.117347E-2,-1.4026672E-2,-2.2012984E-2,1.8767174E-3,2.054084E-2,8.3913095E-3,-2.0145787E-2,5.5572526E-3],"split_indices":[14,9,5,0,12,17,11,17,7,15,18,9,4,3,0,5,0,2,12,9,14,10,2,12,5,0,0,0,0,0,0,0,0,0,0,0,0,0,0,0,0,0,0,0,0],"split_type":[0,0,0,0,0,0,0,0,0,0,0,0,0,0,0,0,0,0,0,0,0,0,0,0,0,0,0,0,0,0,0,0,0,0,0,0,0,0,0,0,0,0,0,0,0],"sum_hessian":[4.5753833E2,7.928282E1,3.782555E2,1.1113918E0,7.817143E1,1.5134619E2,2.269093E2,6.963321E1,8.538225E0,1.9658812E1,1.3168738E2,1.4868636E2,7.822295E1,6.82857E1,1.3475043E0,2.9938023E0,5.5444226E0,9.649379E0,1.0009434E1,1.26297104E2,5.390276E0,7.438184E1,7.430451E1,5.2106365E1,2.6116589E1,6.027672E1,8.008985E0,1.5042517E0,1.4895507E0,3.463657E0,6.1857224E0,8.330695E0,1.6787381E0,2.9772186E1,9.652492E1,2.0205183E0,3.3697574E0,5.5679794E1,1.870205E1,3.1652737E1,4.2651775E1,2.5519392E1,2.6586973E1,3.8292236E0,2.2287365E1],"tree_param":{"num_deleted":"0","num_feature":"19","num_nodes":"45","size_leaf_vector":"1"}},{"base_weights":[1.9100467E-4,4.8179665E-1,-1.00973636E-1,5.110432E-1,2.6398805E-1,-3.1460643E-1,4.0967308E-2,5.497601E-1,2.2219086E-1,1.1842071E-1,2.6924713E-2,5.7185765E-2,-3.711358E-1,3.6531574E-1,5.096426E-3,5.752938E-1,6.331161E-2,-5.391515E-2,3.239955E-1,1.2927535E-2,-3.244047E-2,-1.9494282E-1,2.2304003E-1,-3.856835E-1,-2.462166E-2,-1.1676957E-1,4.4543928E-1,-1.8919045E-1,9.0556465E-2,2.9711848E-2,1.1764816E-2,1.0834942E-2,-6.3404846E-3,-1.3146095E-2,8.526902E-3,9.691409E-3,2.143601E-2,-1.2500915E-2,5.5076336E-3,5.6465887E-3,-1.9334624E-2,1.355126E-2,-8.61038E-3,-1.2130719E-2,-2.1017538E-2,1.46211E-2,-1.179377E-2,8.28752E-3,-1.669175E-2,1.4801422E-2,2.9630853E-2,-2.3894992E-2,-2.3142488E-3,2.5412409E-2,-5.88883E-4],"categories":[],"categories_nodes":[],"categories_segments":[],"categories_sizes":[],"default_left":[0,0,0,0,0,0,0,0,0,0,0,0,0,0,0,0,0,0,0,0,0,0,0,0,0,0,0,0,0,0,0,0,0,0,0,0,0,0,0,0,0,0,0,0,0,0,0,0,0,0,0,0,0,0,0],"id":11,"left_children":[1,3,5,7,9,11,13,15,17,19,-1,21,23,25,27,29,31,33,35,-1,37,39,41,43,45,47,49,51,53,-1,-1,-1,-1,-1,-1,-1,-1,-1,-1,-1,-1,-1,-1,-1,-1,-1,-1,-1,-1,-1,-1,-1,-1,-1,-1],"loss_changes":[2.2296175E1,3.7113762E-1,1.1480728E1,6.4914703E-1,3.946718E-1,3.1965609E0,2.6520472E0,7.1053505E-1,2.937757E-1,1.9397745E-1,0E0,9.135259E-1,6.5226555E-1,9.288542E-1,3.4441996E0,2.2739029E-1,1.4771095E-1,2.0928392E-1,1.6747594E-2,0E0,1.8626922E-1,5.625541E-1,2.9354906E-1,5.225525E-1,4.9478033E-1,3.0232012E-1,2.571783E-1,2.592735E0,6.1622133E0,0E0,0E0,0E0,0E0,0E0,0E0,0E0,0E0,0E0,0E0,0E0,0E0,0E0,0E0,0E0,0E0,0E0,0E0,0E0,0E0,0E0,0E0,0E0,0E0,0E0,0E0],"parents":[2147483647,0,0,1,1,2,2,3,3,4,4,5,5,6,6,7,7,8,8,9,9,11,11,12,12,13,13,14,14,15,15,16,16,17,17,18,18,20,20,21,21,22,22,23,23,24,24,25,25,26,26,27,27,28,28],"right_children":[2,4,6,8,10,12,14,16,18,20,-1,22,24,26,28,30,32,34,36,-1,38,40,42,44,46,48,50,52,54,-1,-1,-1,-1,-1,-1,-1,-1,-1,-1,-1,-1,-1,-1,-1,-1,-1,-1,-1,-1,-1,-1,-1,-1,-1,-1],"split_conditions":[2.858693E-1,7.44339E-3,5.8548435E8,2.1808174E-2,1.705757E-2,-3.24994E-2,-3.0530658E-2,8.486212E-3,-7.590848E-2,5.2116396E7,2.6924713E-2,3.434912E-2,8.3189744E-1,4.6464987E0,9.909822E-1,1.6012391E-2,7.1406593E-3,6.898418E-3,-2.62663E-2,1.2927535E-2,-3.158198E-1,7.545661E-3,2.559135E-2,-1.0439541E-1,4.550048E-1,4.550048E-1,6.362059E-3,6.0509097E-5,1.6828351E0,2.9711848E-2,1.1764816E-2,1.0834942E-2,-6.3404846E-3,-1.3146095E-2,8.526902E-3,9.691409E-3,2.143601E-2,-1.2500915E-2,5.5076336E-3,5.6465887E-3,-1.9334624E-2,1.355126E-2,-8.61038E-3,-1.2130719E-2,-2.1017538E-2,1.46211E-2,-1.179377E-2,8.28752E-3,-1.669175E-2,1.4801422E-2,2.9630853E-2,-2.3894992E-2,-2.3142488E-3,2.5412409E-2,-5.88883E-4],"split_indices":[14,3,5,10,10,17,17,2,18,5,0,15,18,16,13,12,4,2,17,0,18,2,12,9,14,14,8,12,16,0,0,0,0,0,0,0,0,0,0,0,0,0,0,0,0,0,0,0,0,0,0,0,0,0,0],"split_type":[0,0,0,0,0,0,0,0,0,0,0,0,0,0,0,0,0,0,0,0,0,0,0,0,0,0,0,0,0,0,0,0,0,0,0,0,0,0,0,0,0,0,0,0,0,0,0,0,0,0,0,0,0,0,0],"sum_hessian":[4.5562683E2,7.844033E1,3.771865E2,6.796759E1,1.0472738E1,1.5008292E2,2.2710359E2,5.913769E1,8.829898E0,7.779015E0,2.6937227E0,1.980623E1,1.3027667E2,2.1700562E1,2.0540303E2,5.6014835E1,3.122856E0,2.5053918E0,6.3245063E0,3.6628666E0,4.1161485E0,7.7894573E0,1.2016774E1,1.2491917E2,5.357516E0,3.0274863E0,1.8673075E1,6.2377888E1,1.4302515E2,5.2350334E1,3.6645E0,1.6510329E0,1.471823E0,1.2085879E0,1.2968038E0,4.0907507E0,2.2337558E0,1.3313383E0,2.7848103E0,3.1472523E0,4.6422048E0,1.0996081E1,1.0206933E0,2.5925398E1,9.899377E1,1.9887037E0,3.368812E0,1.4181311E0,1.6093551E0,1.076059E1,7.912486E0,1.9876858E1,4.250103E1,2.736487E1,1.1566028E2],"tree_param":{"num_deleted":"0","num_feature":"19","num_nodes":"55","size_leaf_vector":"1"}},{"base_weights":[7.695675E-5,3.2913864E-1,-1.3486055E-1,4.4206017E-1,1.5156944E-1,-3.3795545E-1,1.7026221E-2,3.558623E-1,5.7266843E-1,4.351688E-2,3.7314456E-2,1.21568404E-1,-3.78488E-1,-5.9301086E-2,2.127219E-1,5.672485E-1,2.5141367E-1,6.5030134E-1,3.5885647E-1,1.9047901E-1,-1.9224204E-1,-1.8868463E-1,1.4755355E-2,-1.2289957E-2,-4.0999702E-1,1.102826E-1,-1.9745354E-1,-2.7711827E-2,2.6872817E-1,3.0489732E-2,5.4624574E-3,1.8480392E-2,2.3502833E-3,4.4499286E-3,3.3818085E-2,1.3357644E-3,1.9956416E-2,3.214609E-4,1.6186884E-2,-2.8188163E-2,-2.3367277E-3,-1.6381554E-2,3.0243034E-3,-2.1754319E-2,-1.3721615E-2,1.3026294E-2,-6.0455236E-3,-3.2166142E-2,-5.3355866E-3,-3.9776564E-3,1.8224662E-2],"categories":[],"categories_nodes":[],"categories_segments":[],"categories_sizes":[],"default_left":[0,0,0,0,0,0,0,0,0,0,0,0,0,0,0,0,0,0,0,0,0,0,0,0,0,0,0,0,0,0,0,0,0,0,0,0,0,0,0,0,0,0,0,0,0,0,0,0,0,0,0],"id":12,"left_children":[1,3,5,7,9,11,13,15,17,19,-1,21,23,25,27,29,31,33,35,37,39,41,-1,-1,43,45,47,-1,49,-1,-1,-1,-1,-1,-1,-1,-1,-1,-1,-1,-1,-1,-1,-1,-1,-1,-1,-1,-1,-1,-1],"loss_changes":[2.022046E1,2.5884638E0,9.968079E0,7.017126E-1,3.3734877E0,2.6206627E0,2.7867522E0,9.855027E-1,2.7018356E-1,1.6274573E0,0E0,6.996928E-1,4.313259E-1,3.1703901E0,2.396764E0,2.4713182E-1,8.522186E-1,2.4734306E-1,1.2727094E-1,7.039342E-1,9.536716E-1,1.8948247E-1,0E0,0E0,2.2531319E-1,2.1494768E0,2.9422326E0,0E0,1.6780639E0,0E0,0E0,0E0,0E0,0E0,0E0,0E0,0E0,0E0,0E0,0E0,0E0,0E0,0E0,0E0,0E0,0E0,0E0,0E0,0E0,0E0,0E0],"parents":[2147483647,0,0,1,1,2,2,3,3,4,4,5,5,6,6,7,7,8,8,9,9,11,11,12,12,13,13,14,14,15,15,16,16,17,17,18,18,19,19,20,20,21,21,24,24,25,25,26,26,28,28],"right_children":[2,4,6,8,10,12,14,16,18,20,-1,22,24,26,28,30,32,34,36,38,40,42,-1,-1,44,46,48,-1,50,-1,-1,-1,-1,-1,-1,-1,-1,-1,-1,-1,-1,-1,-1,-1,-1,-1,-1,-1,-1,-1,-1],"split_conditions":[1.1948831E-2,2.858693E-1,6.00965E8,1.6828351E0,8.70475E-1,9.223872E-3,7.183291E-2,1.1428571E-2,9.217589E-3,-2.5763232E-2,3.7314456E-2,7.7639287E-3,-1.0439541E-1,-7.503035E-3,7.547325E-3,7.44339E-3,-2.6570648E-2,-2.3029517E-2,-1.2393598E-1,9.50864E-3,6.0509097E-5,2.790176E-1,1.4755355E-2,-1.2289957E-2,2.0427728E0,-1.3320838E-2,1.4642654E-2,-2.7711827E-2,-4.306438E-2,3.0489732E-2,5.4624574E-3,1.8480392E-2,2.3502833E-3,4.4499286E-3,3.3818085E-2,1.3357644E-3,1.9956416E-2,3.214609E-4,1.6186884E-2,-2.8188163E-2,-2.3367277E-3,-1.6381554E-2,3.0243034E-3,-2.1754319E-2,-1.3721615E-2,1.3026294E-2,-6.0455236E-3,-3.2166142E-2,-5.3355866E-3,-3.9776564E-3,1.8224662E-2],"split_indices":[3,14,5,16,13,2,2,10,12,17,0,12,9,17,17,3,9,12,4,12,12,4,0,0,16,9,2,0,0,0,0,0,0,0,0,0,0,0,0,0,0,0,0,0,0,0,0,0,0,0,0],"split_type":[0,0,0,0,0,0,0,0,0,0,0,0,0,0,0,0,0,0,0,0,0,0,0,0,0,0,0,0,0,0,0,0,0,0,0,0,0,0,0,0,0,0,0,0,0,0,0,0,0,0,0],"sum_hessian":[4.5338782E2,1.3143303E2,3.2195477E2,7.9430984E1,5.2002045E1,1.3723132E2,1.8472346E2,5.009458E1,2.9336401E1,4.49148E1,7.087242E0,1.0961363E1,1.2626995E2,1.3339307E2,5.1330402E1,1.5101281E1,3.49933E1,2.0024317E1,9.312084E0,2.778615E1,1.7128649E1,3.9005928E0,7.06077E0,2.591965E1,1.003503E2,5.9974915E1,7.3418144E1,2.8878448E0,4.844256E1,1.351442E1,1.586861E0,2.1660461E1,1.3332841E1,1.0843358E0,1.8939981E1,1.1868589E0,8.125225E0,1.2109456E1,1.5676695E1,4.0115585E0,1.3117091E1,2.302019E0,1.598574E0,8.281421E1,1.7536098E1,3.62746E1,2.3700315E1,1.1385367E1,6.203278E1,1.0483854E1,3.7958706E1],"tree_param":{"num_deleted":"0","num_feature":"19","num_nodes":"51","size_leaf_vector":"1"}},{"base_weights":[4.947738E-5,4.3589067E-1,-9.966835E-2,4.9227428E-1,1.7567074E-2,-2.7934486E-1,3.9719284E-2,5.3067994E-1,1.5643404E-1,-2.6987994E-1,3.254267E-1,1.2317186E-1,-3.6406803E-1,-4.7972023E-2,1.9093646E-1,-3.867079E-3,5.50053E-1,-4.7080327E-2,3.741604E-1,7.2367378E-3,-3.1666152E-2,2.4873653E-2,4.89764E-3,1.833933E-1,-2.4471937E-1,1.4956508E-2,-3.768383E-1,9.850893E-2,-1.4323984E-1,2.6229572E-1,2.133748E-2,2.8793871E-2,2.2997127E-3,2.700451E-3,-1.1379489E-2,5.515882E-3,2.1565137E-2,-3.286978E-3,1.3400135E-2,-1.6240053E-2,-2.2733443E-4,-1.8847404E-2,1.3889286E-2,-1.2229598E-2,-2.0421732E-2,1.6604384E-2,-1.1498772E-2,-2.136947E-2,2.285447E-3,1.7634623E-2,1.6739722E-3,-1.1194287E-2,1.9832794E-2],"categories":[],"categories_nodes":[],"categories_segments":[],"categories_sizes":[],"default_left":[0,0,0,0,0,0,0,0,0,0,0,0,0,0,0,0,0,0,0,0,0,0,0,0,0,0,0,0,0,0,0,0,0,0,0,0,0,0,0,0,0,0,0,0,0,0,0,0,0,0,0,0,0],"id":13,"left_children":[1,3,5,7,9,11,13,15,17,19,21,23,25,27,29,-1,31,33,35,-1,-1,-1,-1,37,39,41,43,45,47,49,51,-1,-1,-1,-1,-1,-1,-1,-1,-1,-1,-1,-1,-1,-1,-1,-1,-1,-1,-1,-1,-1,-1],"loss_changes":[1.9671963E1,1.9791718E0,9.23646E0,8.7441826E-1,1.0654228E0,5.536915E0,2.7714424E0,8.222656E-1,4.1798833E-1,1.0349177E0,1.7777139E-1,6.818461E-1,6.508179E-1,1.8652191E0,9.2218995E-1,0E0,8.101711E-1,1.13720596E-1,1.9919932E-2,0E0,0E0,0E0,0E0,5.5045056E-1,8.454731E-2,6.5130144E-1,4.390812E-1,4.132667E0,4.3567286E0,1.1024406E0,2.2785022E0,0E0,0E0,0E0,0E0,0E0,0E0,0E0,0E0,0E0,0E0,0E0,0E0,0E0,0E0,0E0,0E0,0E0,0E0,0E0,0E0,0E0,0E0],"parents":[2147483647,0,0,1,1,2,2,3,3,4,4,5,5,6,6,7,7,8,8,9,9,10,10,11,11,12,12,13,13,14,14,16,16,17,17,18,18,23,23,24,24,25,25,26,26,27,27,28,28,29,29,30,30],"right_children":[2,4,6,8,10,12,14,16,18,20,22,24,26,28,30,-1,32,34,36,-1,-1,-1,-1,38,40,42,44,46,48,50,52,-1,-1,-1,-1,-1,-1,-1,-1,-1,-1,-1,-1,-1,-1,-1,-1,-1,-1,-1,-1,-1,-1],"split_conditions":[7.44339E-3,3.9795548E9,6.165851E8,2.1808174E-2,1.1428571E-2,-3.24994E-2,6.0301507E-1,1.2687846E-1,2.5133518E8,-3.7760608E-2,7.378046E-1,5.0450766E-1,3.8071942E-1,2.0484172E-2,5.1293295E-2,-3.867079E-3,8.486212E-3,-2.6350475E-3,-3.7037037E-2,7.2367378E-3,-3.1666152E-2,2.4873653E-2,4.89764E-3,-1.2694795E-3,2.0012889E-2,-1.10281035E-2,-1.0439541E-1,-1.3320838E-2,3.834069E-2,1.8276566E-1,8.847981E-2,2.8793871E-2,2.2997127E-3,2.700451E-3,-1.1379489E-2,5.515882E-3,2.1565137E-2,-3.286978E-3,1.3400135E-2,-1.6240053E-2,-2.2733443E-4,-1.8847404E-2,1.3889286E-2,-1.2229598E-2,-2.0421732E-2,1.6604384E-2,-1.1498772E-2,-2.136947E-2,2.285447E-3,1.7634623E-2,1.6739722E-3,-1.1194287E-2,1.9832794E-2],"split_indices":[3,5,5,10,10,17,11,16,5,9,14,13,14,10,0,0,2,0,11,0,0,0,0,12,12,8,9,9,2,4,7,0,0,0,0,0,0,0,0,0,0,0,0,0,0,0,0,0,0,0,0,0,0],"split_type":[0,0,0,0,0,0,0,0,0,0,0,0,0,0,0,0,0,0,0,0,0,0,0,0,0,0,0,0,0,0,0,0,0,0,0,0,0,0,0,0,0,0,0,0,0,0,0,0,0,0,0,0,0],"sum_hessian":[4.5063382E2,8.3277565E1,3.6735623E2,7.3230446E1,1.0047122E1,1.6004607E2,2.0731018E2,6.519482E1,8.035629E0,5.259614E0,4.7875085E0,2.7750525E1,1.3229555E2,1.3164919E2,7.5661E1,1.9207287E0,6.3274086E1,4.5584726E0,3.4771564E0,2.7379436E0,2.5216699E0,2.0500438E0,2.7374647E0,2.4277891E1,3.4726343E0,4.306501E0,1.27989044E2,5.186661E1,7.978257E1,5.286946E1,2.279154E1,6.0054817E1,3.2192664E0,3.3712778E0,1.1871946E0,1.1407157E0,2.3364408E0,6.2114024E0,1.8066488E1,2.340026E0,1.1326082E0,1.5544566E0,2.7520442E0,2.6367802E1,1.0162124E2,3.030579E1,2.156082E1,3.1360031E1,4.842254E1,3.750949E1,1.5359969E1,1.4028901E1,8.762639E0],"tree_param":{"num_deleted":"0","num_feature":"19","num_nodes":"53","size_leaf_vector":"1"}},{"base_weights":[-2.7925664E-4,3.4341463E-1,-1.3572983E-1,4.5383754E-1,1.5863977E-1,-2.4923584E-1,1.453527E-1,4.8289463E-1,1.5349665E-1,5.8682613E-2,3.5616986E-2,-7.9953305E-2,-3.226532E-1,-1.6205277E-1,1.8223195E-1,5.1064795E-1,1.9768453E-1,-1.3707133E-1,1.4204255E-2,-1.2361323E-1,2.7097073E-1,1.3781972E-1,-3.000591E-1,-3.6594665E-1,1.3516907E-1,1.9419941E-1,-4.3546173E-1,5.0529605E-1,1.5085831E-1,2.6479607E-2,9.409624E-3,1.7196473E-2,-1.230279E-2,2.7378218E-3,-1.3639994E-2,1.7547815E-3,-1.6299546E-2,1.5325457E-2,-5.100333E-3,1.9404481E-3,3.0121509E-2,-1.8074216E-2,1.1421922E-2,-1.9333417E-2,-2.9094864E-3,-2.5012014E-2,2.2675045E-2,-5.603664E-3,1.817777E-2,-1.2137562E-2,-3.177182E-2,2.8225109E-2,3.8702209E-3,1.3329297E-3,1.3017493E-2],"categories":[],"categories_nodes":[],"categories_segments":[],"categories_sizes":[],"default_left":[0,0,0,0,0,0,0,0,0,0,0,0,0,0,0,0,0,0,0,0,0,0,0,0,0,0,0,0,0,0,0,0,0,0,0,0,0,0,0,0,0,0,0,0,0,0,0,0,0,0,0,0,0,0,0],"id":14,"left_children":[1,3,5,7,9,11,13,15,17,19,-1,21,23,25,27,29,31,33,-1,35,37,39,41,43,45,47,49,51,53,-1,-1,-1,-1,-1,-1,-1,-1,-1,-1,-1,-1,-1,-1,-1,-1,-1,-1,-1,-1,-1,-1,-1,-1,-1,-1],"loss_changes":[2.0976345E1,2.5269318E0,1.0347998E1,6.1699295E-1,2.6803885E0,2.8401957E0,1.090711E0,4.6691895E-1,3.5964143E-1,1.6880108E0,0E0,3.4487906E0,3.2309895E0,1.1127517E0,7.7565837E-1,2.9585457E-1,6.033665E-1,1.0073282E-1,0E0,7.7228343E-1,2.9722834E-1,1.6519132E0,1.2405038E0,9.144268E-1,3.1795795E0,3.1436396E-1,8.7793946E-2,1.339972E-1,1.0542315E0,0E0,0E0,0E0,0E0,0E0,0E0,0E0,0E0,0E0,0E0,0E0,0E0,0E0,0E0,0E0,0E0,0E0,0E0,0E0,0E0,0E0,0E0,0E0,0E0,0E0,0E0],"parents":[2147483647,0,0,1,1,2,2,3,3,4,4,5,5,6,6,7,7,8,8,9,9,11,11,12,12,13,13,14,14,15,15,16,16,17,17,19,19,20,20,21,21,22,22,23,23,24,24,25,25,26,26,27,27,28,28],"right_children":[2,4,6,8,10,12,14,16,18,20,-1,22,24,26,28,30,32,34,-1,36,38,40,42,44,46,48,50,52,54,-1,-1,-1,-1,-1,-1,-1,-1,-1,-1,-1,-1,-1,-1,-1,-1,-1,-1,-1,-1,-1,-1,-1,-1,-1,-1],"split_conditions":[1.1665378E-2,2.858693E-1,8.049745E0,1.6428133E-2,8.70475E-1,2.4709303E-2,-2.5367156E-2,8.486212E-3,1.4084727E-1,9.816536E-3,3.5616986E-2,-8.684405E-3,3.8219802E0,-5.794356E-1,5.0661147E-1,7.44339E-3,1.6896065E-2,6.25E-3,1.4204255E-2,-4.1329656E-3,7.2826964E-1,3.118582E-2,1.8679919E-2,7.542373E-1,-6.875E-1,8.895396E-2,8.895396E-2,-3.0530658E-2,2.0739123E-2,2.6479607E-2,9.409624E-3,1.7196473E-2,-1.230279E-2,2.7378218E-3,-1.3639994E-2,1.7547815E-3,-1.6299546E-2,1.5325457E-2,-5.100333E-3,1.9404481E-3,3.0121509E-2,-1.8074216E-2,1.1421922E-2,-1.9333417E-2,-2.9094864E-3,-2.5012014E-2,2.2675045E-2,-5.603664E-3,1.817777E-2,-1.2137562E-2,-3.177182E-2,2.8225109E-2,3.8702209E-3,1.3329297E-3,1.3017493E-2],"split_indices":[3,14,16,12,13,10,7,2,6,12,0,8,13,18,14,3,6,11,0,15,15,2,12,11,11,3,3,17,7,0,0,0,0,0,0,0,0,0,0,0,0,0,0,0,0,0,0,0,0,0,0,0,0,0,0],"split_type":[0,0,0,0,0,0,0,0,0,0,0,0,0,0,0,0,0,0,0,0,0,0,0,0,0,0,0,0,0,0,0,0,0,0,0,0,0,0,0,0,0,0,0,0,0,0,0,0,0,0,0,0,0,0,0],"sum_hessian":[4.4858417E2,1.2637737E2,3.222068E2,7.819266E1,4.8184715E1,2.2960258E2,9.26042E1,7.0740875E1,7.451788E0,4.175317E1,6.431545E0,7.0087326E1,1.5951526E2,9.556043E0,8.304816E1,6.3747307E1,6.993566E0,2.295191E0,5.156597E0,2.2688143E1,1.906503E1,3.5418274E1,3.466905E1,1.4591742E2,1.3597842E1,4.2751837E0,5.2808585E0,6.014034E0,7.703413E1,5.9603245E1,4.144062E0,5.4291835E0,1.5643824E0,1.1982523E0,1.0969388E0,1.3179267E1,9.508876E0,1.7569193E1,1.4958357E0,3.008957E1,5.3287053E0,3.1342276E1,3.3267748E0,1.3647217E2,9.445256E0,4.3478436E0,9.249998E0,1.6426904E0,2.6324935E0,3.8167062E0,1.4641523E0,5.0025773E0,1.0114565E0,3.6675465E1,4.0358658E1],"tree_param":{"num_deleted":"0","num_feature":"19","num_nodes":"55","size_leaf_vector":"1"}},{"base_weights":[-7.199617E-5,3.2775316E-1,-1.3154261E-1,4.3517983E-1,1.4814031E-1,-3.4630617E-1,2.4961863E-2,4.510249E-1,-9.317317E-2,5.5096656E-2,3.4797452E-2,1.036116E-1,-3.845166E-1,-4.898006E-2,2.4402966E-1,5.341205E-1,3.226578E-1,-6.8600005E-3,-2.7129272E-4,-3.050957E-1,1.4471483E-1,2.1419798E-1,-1.4329835E-2,-1.3354487E-2,-4.1245425E-1,1.352272E-1,-1.746532E-1,-2.8072923E-2,2.9991138E-1,-1.4285276E-3,2.7711375E-2,1.1074391E-2,2.4083788E-2,-2.3188716E-2,7.6648793E-3,1.2708338E-2,-1.0088016E-3,3.934575E-3,1.7969152E-2,-2.1774583E-2,-1.429248E-2,1.6262913E-2,1.5254495E-3,-2.802842E-2,-5.5172644E-3,3.3418663E-2,1.1438752E-2],"categories":[],"categories_nodes":[],"categories_segments":[],"categories_sizes":[],"default_left":[0,0,0,0,0,0,0,0,0,0,0,0,0,0,0,0,0,0,0,0,0,0,0,0,0,0,0,0,0,0,0,0,0,0,0,0,0,0,0,0,0,0,0,0,0,0,0],"id":15,"left_children":[1,3,5,7,9,11,13,15,17,19,-1,21,23,25,27,29,31,-1,-1,33,35,37,-1,-1,39,41,43,-1,45,-1,-1,-1,-1,-1,-1,-1,-1,-1,-1,-1,-1,-1,-1,-1,-1,-1,-1],"loss_changes":[1.9319906E1,2.4113588E0,1.0762659E1,7.098789E-1,2.4866228E0,2.359661E0,3.0250208E0,6.5564823E-1,1.1430703E-2,1.4461218E0,0E0,5.51192E-1,2.9856873E-1,3.2623756E0,2.2888036E0,5.3169346E-1,4.2467022E-1,0E0,0E0,7.2390336E-1,6.4504176E-1,1.5697584E-1,0E0,0E0,1.636982E-1,1.1303716E0,2.0129197E0,0E0,1.0188165E0,0E0,0E0,0E0,0E0,0E0,0E0,0E0,0E0,0E0,0E0,0E0,0E0,0E0,0E0,0E0,0E0,0E0,0E0],"parents":[2147483647,0,0,1,1,2,2,3,3,4,4,5,5,6,6,7,7,8,8,9,9,11,11,12,12,13,13,14,14,15,15,16,16,19,19,20,20,21,21,24,24,25,25,26,26,28,28],"right_children":[2,4,6,8,10,12,14,16,18,20,-1,22,24,26,28,30,32,-1,-1,34,36,38,-1,-1,40,42,44,-1,46,-1,-1,-1,-1,-1,-1,-1,-1,-1,-1,-1,-1,-1,-1,-1,-1,-1,-1],"split_conditions":[1.1948831E-2,2.858693E-1,6.165851E8,1.7562285E-2,8.70475E-1,9.223872E-3,8.2202025E-2,2.3647286E-1,1.5898252E-2,6.0509097E-5,3.4797452E-2,-2.8629305E-2,-1.0439541E-1,-8.421739E-3,7.547325E-3,-2.2337187E-2,2.651245E8,-6.8600005E-3,-2.7129272E-4,4.7816157E0,-2.62663E-2,2.1505376E-2,-1.4329835E-2,-1.3354487E-2,2.0427728E0,1.7477652E-2,1.4642654E-2,-2.8072923E-2,5.321316E0,-1.4285276E-3,2.7711375E-2,1.1074391E-2,2.4083788E-2,-2.3188716E-2,7.6648793E-3,1.2708338E-2,-1.0088016E-3,3.934575E-3,1.7969152E-2,-2.1774583E-2,-1.429248E-2,1.6262913E-2,1.5254495E-3,-2.802842E-2,-5.5172644E-3,3.3418663E-2,1.1438752E-2],"split_indices":[3,14,5,9,13,2,2,13,10,12,0,17,9,17,17,12,5,0,0,16,17,10,0,0,16,3,2,0,16,0,0,0,0,0,0,0,0,0,0,0,0,0,0,0,0,0,0],"split_type":[0,0,0,0,0,0,0,0,0,0,0,0,0,0,0,0,0,0,0,0,0,0,0,0,0,0,0,0,0,0,0,0,0,0,0,0,0,0,0,0,0,0,0,0,0,0,0],"sum_hessian":[4.4626385E2,1.2731294E2,3.189509E2,7.877477E1,4.853817E1,1.3393947E2,1.8501144E2,7.662324E1,2.1515367E0,4.243183E1,6.106342E0,1.0350731E1,1.2358873E2,1.389037E2,4.6107735E1,4.4594852E1,3.2028385E1,1.0574067E0,1.0941302E0,7.9748816E0,3.4456947E1,8.416527E0,1.9342048E0,2.578212E1,9.780661E1,5.6302082E1,8.260163E1,2.4043124E0,4.3703423E1,1.5240324E0,4.307082E1,2.1037077E1,1.0991308E1,5.915439E0,2.0594423E0,2.0384571E1,1.4072376E1,5.1509585E0,3.2655678E0,8.0685104E1,1.712151E1,1.9254717E1,3.7047363E1,1.0696205E1,7.1905426E1,5.713547E0,3.7989872E1],"tree_param":{"num_deleted":"0","num_feature":"19","num_nodes":"47","size_leaf_vector":"1"}},{"base_weights":[3.6428733E-5,3.0134973E-1,-1.19135186E-1,4.1468942E-1,1.3264185E-1,-3.2129264E-1,3.9587278E-2,4.4605583E-1,-7.6888464E-2,-4.8040297E-2,3.3142182E-1,8.761084E-2,-3.5500315E-1,-4.9677823E-2,2.1813025E-1,4.6691412E-1,-6.399049E-2,-2.2973743E-1,6.304582E-3,-2.0498817E-1,1.3849881E-1,4.843603E-1,7.643271E-2,1.9430472E-1,-1.3958401E-2,1.8488823E-2,-3.6448726E-1,1.694174E-2,-3.0821824E-1,3.1309995E-1,-3.942578E-2,2.6896093E-2,1.5243702E-2,-1.249441E-2,5.7272604E-3,-2.816879E-4,-1.7154057E-2,2.7899202E-3,-2.222197E-2,-1.1871576E-2,9.915464E-3,1.1584031E-2,2.8916989E-2,1.3975534E-2,-3.5638367E-3,-2.5464385E-4,1.4613107E-2,-1.3256337E-2,-1.9875444E-2,8.09962E-3,-4.8684645E-3,2.4144711E-2,-2.4908006E-2,4.4023627E-3,1.9690571E-2,1.8452505E-3,-2.4933292E-2],"categories":[],"categories_nodes":[],"categories_segments":[],"categories_sizes":[],"default_left":[0,0,0,0,0,0,0,0,0,0,0,0,0,0,0,0,0,0,0,0,0,0,0,0,0,0,0,0,0,0,0,0,0,0,0,0,0,0,0,0,0,0,0,0,0,0,0,0,0,0,0,0,0,0,0,0,0],"id":16,"left_children":[1,3,5,7,9,11,13,15,17,19,21,23,25,27,29,31,33,35,-1,37,39,41,43,45,-1,-1,47,49,51,53,55,-1,-1,-1,-1,-1,-1,-1,-1,-1,-1,-1,-1,-1,-1,-1,-1,-1,-1,-1,-1,-1,-1,-1,-1,-1,-1],"loss_changes":[1.5980007E1,2.3567085E0,1.024523E1,1.1903095E0,1.8890816E0,1.9659872E0,2.872144E0,7.812166E-1,1.9494988E-1,8.538258E-1,9.363556E-1,5.039939E-1,1.0275288E0,2.0807798E0,1.4805915E0,6.1805916E-1,1.4990169E-1,8.458623E-2,0E0,1.0061136E0,3.5016254E-1,2.3205686E-1,3.3624256E-1,1.8690303E-1,0E0,0E0,3.168869E-1,1.6201972E0,3.9583402E0,7.639618E-1,6.163975E-1,0E0,0E0,0E0,0E0,0E0,0E0,0E0,0E0,0E0,0E0,0E0,0E0,0E0,0E0,0E0,0E0,0E0,0E0,0E0,0E0,0E0,0E0,0E0,0E0,0E0,0E0],"parents":[2147483647,0,0,1,1,2,2,3,3,4,4,5,5,6,6,7,7,8,8,9,9,10,10,11,11,12,12,13,13,14,14,15,15,16,16,17,17,19,19,20,20,21,21,22,22,23,23,26,26,27,27,28,28,29,29,30,30],"right_children":[2,4,6,8,10,12,14,16,18,20,22,24,26,28,30,32,34,36,-1,38,40,42,44,46,-1,-1,48,50,52,54,56,-1,-1,-1,-1,-1,-1,-1,-1,-1,-1,-1,-1,-1,-1,-1,-1,-1,-1,-1,-1,-1,-1,-1,-1,-1,-1],"split_conditions":[1.1665378E-2,6.898418E-3,6.680161E8,4.916431E-3,1.7458009E0,9.223872E-3,6.293706E-1,2.586207E-2,5.483758E-3,1.360917E-1,1.3164148E-1,-2.8629305E-2,1.1428571E-2,8.2179604E9,2.1832637E-1,2.3647286E-1,5.024221E-3,1.4058384E-3,6.304582E-3,4.439877E-1,-1.9670345E-3,-1.941709E-1,4.760067E-3,1.1665727E-2,-1.3958401E-2,1.8488823E-2,-9.380586E-2,-2.195122E-1,-1.7110266E-2,1.7691115E-2,3.5455015E-1,2.6896093E-2,1.5243702E-2,-1.249441E-2,5.7272604E-3,-2.816879E-4,-1.7154057E-2,2.7899202E-3,-2.222197E-2,-1.1871576E-2,9.915464E-3,1.1584031E-2,2.8916989E-2,1.3975534E-2,-3.5638367E-3,-2.5464385E-4,1.4613107E-2,-1.3256337E-2,-1.9875444E-2,8.09962E-3,-4.8684645E-3,2.4144711E-2,-2.4908006E-2,4.4023627E-3,1.9690571E-2,1.8452505E-3,-2.4933292E-2],"split_indices":[3,2,5,1,16,2,11,10,0,6,6,17,10,5,4,13,2,12,0,16,12,15,8,12,0,0,9,11,7,1,9,0,0,0,0,0,0,0,0,0,0,0,0,0,0,0,0,0,0,0,0,0,0,0,0,0,0],"split_type":[0,0,0,0,0,0,0,0,0,0,0,0,0,0,0,0,0,0,0,0,0,0,0,0,0,0,0,0,0,0,0,0,0,0,0,0,0,0,0,0,0,0,0,0,0,0,0,0,0,0,0,0,0,0,0,0,0],"sum_hessian":[4.4302667E2,1.2512703E2,3.1789966E2,7.39731E1,5.115393E1,1.3936838E2,1.7853128E2,6.9623215E1,4.349889E0,2.7194061E1,2.395987E1,1.04928465E1,1.2887553E2,1.19504875E2,5.9026405E1,6.6969086E1,2.654127E0,2.4061651E0,1.9437234E0,1.4714697E1,1.2479364E1,1.4414652E1,9.5452175E0,8.49263E0,2.0002172E0,1.1739347E0,1.2770159E2,9.576344E1,2.3741432E1,4.296725E1,1.6059155E1,4.495127E1,2.2017815E1,1.1044648E0,1.5496621E0,1.1607767E0,1.2453884E0,7.4106855E0,7.304012E0,1.3053067E0,1.1174057E1,4.8472424E0,9.5674095E0,3.6435676E0,5.90165E0,3.1100218E0,5.382608E0,3.4106262E1,9.359533E1,4.2022923E1,5.374052E1,4.297968E0,1.9443464E1,1.1893836E1,3.1073418E1,1.4558937E1,1.5002178E0],"tree_param":{"num_deleted":"0","num_feature":"19","num_nodes":"57","size_leaf_vector":"1"}},{"base_weights":[7.753229E-6,3.017558E-1,-1.2258088E-1,4.8503235E-1,1.7897886E-1,-3.283138E-1,2.5339568E-2,-3.2553808E-3,4.9975598E-1,1.3002649E-1,3.3793807E-2,8.325316E-2,-3.6281613E-1,-5.012523E-2,1.9060913E-1,5.1992536E-1,8.99925E-4,2.3091577E-1,-1.3355953E-1,1.8780047E-1,-1.3679303E-2,-1.2741989E-2,-3.8641706E-1,-3.142225E-1,2.0751564E-2,-2.4899984E-2,2.2977547E-1,2.7528439E-2,9.537912E-3,4.7325897E-3,1.7149096E-2,-2.351926E-2,-1.8465862E-3,-2.425921E-3,1.2163565E-2,-2.0796401E-2,-1.4691147E-2,-2.4597013E-2,-2.4556927E-3,1.562849E-2,-3.1752419E-3,6.9207363E-3,2.2541843E-2],"categories":[],"categories_nodes":[],"categories_segments":[],"categories_sizes":[],"default_left":[0,0,0,0,0,0,0,0,0,0,0,0,0,0,0,0,0,0,0,0,0,0,0,0,0,0,0,0,0,0,0,0,0,0,0,0,0,0,0,0,0,0,0],"id":17,"left_children":[1,3,5,7,9,11,13,-1,15,17,-1,19,21,23,25,27,-1,29,31,33,-1,-1,35,37,39,-1,41,-1,-1,-1,-1,-1,-1,-1,-1,-1,-1,-1,-1,-1,-1,-1,-1],"loss_changes":[1.639529E1,2.794485E0,9.599907E0,4.4387436E-1,1.8158188E0,1.9031868E0,2.307899E0,0E0,4.7233963E-1,1.9583762E0,0E0,4.623298E-1,2.121296E-1,2.3894446E0,1.6780527E0,3.7455845E-1,0E0,7.736018E-1,6.5625715E-1,1.3125595E-1,0E0,0E0,1.4581394E-1,1.2478402E0,2.510716E0,0E0,1.0593026E0,0E0,0E0,0E0,0E0,0E0,0E0,0E0,0E0,0E0,0E0,0E0,0E0,0E0,0E0,0E0,0E0],"parents":[2147483647,0,0,1,1,2,2,3,3,4,4,5,5,6,6,8,8,9,9,11,11,12,12,13,13,14,14,15,15,17,17,18,18,19,19,22,22,23,23,24,24,26,26],"right_children":[2,4,6,8,10,12,14,-1,16,18,-1,20,22,24,26,28,-1,30,32,34,-1,-1,36,38,40,-1,42,-1,-1,-1,-1,-1,-1,-1,-1,-1,-1,-1,-1,-1,-1,-1,-1],"split_conditions":[1.1948831E-2,2.3647286E-1,6.165851E8,-2.2337187E-2,8.70475E-1,9.223872E-3,7.183291E-2,-3.2553808E-3,6.790249E-5,-2.7359445E-2,3.3793807E-2,-2.8629305E-2,-1.0662209E-1,-1.4144507E-2,7.547325E-3,2.1808174E-2,8.99925E-4,2.6039854E8,-2.8867984E-2,6.345989E-3,-1.3679303E-2,-1.2741989E-2,1.4466617E0,3.834069E-2,-2.195122E-1,-2.4899984E-2,8.847981E-2,2.7528439E-2,9.537912E-3,4.7325897E-3,1.7149096E-2,-2.351926E-2,-1.8465862E-3,-2.425921E-3,1.2163565E-2,-2.0796401E-2,-1.4691147E-2,-2.4597013E-2,-2.4556927E-3,1.562849E-2,-3.1752419E-3,6.9207363E-3,2.2541843E-2],"split_indices":[3,13,5,12,13,2,2,0,9,17,0,17,9,0,17,10,0,5,1,12,0,0,16,2,11,0,7,0,0,0,0,0,0,0,0,0,0,0,0,0,0,0,0],"split_type":[0,0,0,0,0,0,0,0,0,0,0,0,0,0,0,0,0,0,0,0,0,0,0,0,0,0,0,0,0,0,0,0,0,0,0,0,0,0,0,0,0,0,0],"sum_hessian":[4.412253E2,1.2704545E2,3.1417987E2,4.9782124E1,7.726333E1,1.3090001E2,1.8327985E2,1.2084147E0,4.857371E1,7.1482796E1,5.7805276E0,1.001549E1,1.2088453E2,1.2630405E2,5.69758E1,4.6545784E1,2.0279255E0,5.1785503E1,1.9697296E1,8.112413E0,1.9030763E0,2.379917E1,9.708536E1,2.5998074E1,1.0030598E2,2.4357808E0,5.454002E1,4.1966366E1,4.5794168E0,2.4202139E1,2.7583363E1,3.5287497E0,1.6168547E1,1.5660409E0,6.5463724E0,7.097328E1,2.6112072E1,1.50521345E1,1.0945939E1,2.1865625E1,7.844035E1,3.9741642E1,1.4798377E1],"tree_param":{"num_deleted":"0","num_feature":"19","num_nodes":"43","size_leaf_vector":"1"}},{"base_weights":[1.8539882E-4,3.4984607E-1,-1.01834536E-1,4.0332624E-1,4.4414155E-2,-2.9598147E-1,4.004139E-2,3.2421884E-1,5.082094E-1,-1.1032544E-1,2.0300485E-2,6.921384E-2,-3.530569E-1,-4.473229E-2,1.7788121E-1,4.9950403E-1,2.1887946E-1,-2.4030019E-4,5.402981E-1,-2.9019265E-2,7.272482E-2,-1.8999265E-1,1.8651567E-1,-3.664467E-1,-1.03078205E-2,1.05826266E-1,-1.3911164E-1,2.684805E-1,-7.6751225E-2,2.9338747E-2,3.224262E-4,1.4026699E-2,-3.372262E-4,3.0494755E-2,1.5971927E-2,-2.1811344E-2,9.306869E-3,-1.5937258E-2,3.2861282E-3,1.5532551E-3,1.8151812E-2,-1.2643175E-2,-1.960579E-2,1.5250849E-2,-1.0784438E-2,2.189493E-2,-3.7176895E-3,-1.3695984E-2,1.1371939E-2,9.987191E-3,2.844939E-2,-1.4770691E-2,1.1104638E-3],"categories":[],"categories_nodes":[],"categories_segments":[],"categories_sizes":[],"default_left":[0,0,0,0,0,0,0,0,0,0,0,0,0,0,0,0,0,0,0,0,0,0,0,0,0,0,0,0,0,0,0,0,0,0,0,0,0,0,0,0,0,0,0,0,0,0,0,0,0,0,0,0,0],"id":18,"left_children":[1,3,5,7,9,11,13,15,17,19,-1,21,23,25,27,29,31,-1,33,-1,35,37,39,41,43,45,47,49,51,-1,-1,-1,-1,-1,-1,-1,-1,-1,-1,-1,-1,-1,-1,-1,-1,-1,-1,-1,-1,-1,-1,-1,-1],"loss_changes":[1.5777219E1,1.6138582E0,9.442792E0,5.3954506E-1,9.405481E-1,3.0401354E0,2.3298528E0,8.3516455E-1,5.7441616E-1,1.0745394E0,0E0,6.5545505E-1,5.7122135E-1,1.7743623E0,1.7708836E0,7.8887177E-1,4.7111344E-1,0E0,3.0780888E-1,0E0,6.309173E-1,2.4642722E-1,3.877926E-1,2.5232315E-1,4.3748757E-1,2.9215136E0,3.8449707E0,1.0468264E0,4.5423192E-1,0E0,0E0,0E0,0E0,0E0,0E0,0E0,0E0,0E0,0E0,0E0,0E0,0E0,0E0,0E0,0E0,0E0,0E0,0E0,0E0,0E0,0E0,0E0,0E0],"parents":[2147483647,0,0,1,1,2,2,3,3,4,4,5,5,6,6,7,7,8,8,9,9,11,11,12,12,13,13,14,14,15,15,16,16,18,18,20,20,21,21,22,22,23,23,24,24,25,25,26,26,27,27,28,28],"right_children":[2,4,6,8,10,12,14,16,18,20,-1,22,24,26,28,30,32,-1,34,-1,36,38,40,42,44,46,48,50,52,-1,-1,-1,-1,-1,-1,-1,-1,-1,-1,-1,-1,-1,-1,-1,-1,-1,-1,-1,-1,-1,-1,-1,-1],"split_conditions":[9.343563E-3,1.6830162E9,6.165851E8,2.7486707E8,1.32137375E1,-3.24994E-2,6.0301507E-1,1.1428571E-2,-7.419355E-1,6.0509097E-5,2.0300485E-2,1.1361919E-2,8.3189744E-1,2.0484172E-2,2.1832637E-1,7.44339E-3,7.2147715E-1,-2.4030019E-4,8.3254855E-3,-2.9019265E-2,-2.0198771E-1,2.1316789E-1,8.516266E-1,-1.0662209E-1,4.550048E-1,-1.1532125E-2,1.0098753E-1,8.847981E-2,2.1827498E-2,2.9338747E-2,3.224262E-4,1.4026699E-2,-3.372262E-4,3.0494755E-2,1.5971927E-2,-2.1811344E-2,9.306869E-3,-1.5937258E-2,3.2861282E-3,1.5532551E-3,1.8151812E-2,-1.2643175E-2,-1.960579E-2,1.5250849E-2,-1.0784438E-2,2.189493E-2,-3.7176895E-3,-1.3695984E-2,1.1371939E-2,9.987191E-3,2.844939E-2,-1.4770691E-2,1.1104638E-3],"split_indices":[3,5,5,5,16,17,11,10,11,12,0,12,18,10,4,3,16,0,12,0,4,4,16,9,14,8,2,7,1,0,0,0,0,0,0,0,0,0,0,0,0,0,0,0,0,0,0,0,0,0,0,0,0],"split_type":[0,0,0,0,0,0,0,0,0,0,0,0,0,0,0,0,0,0,0,0,0,0,0,0,0,0,0,0,0,0,0,0,0,0,0,0,0,0,0,0,0,0,0,0,0,0,0,0,0,0,0,0,0],"sum_hessian":[4.4028268E2,9.889684E1,3.4138583E2,8.3887825E1,1.5009017E1,1.4368167E2,1.9770416E2,5.0152145E1,3.373568E1,1.0997632E1,4.011385E0,1.9391724E1,1.24289955E2,1.2283448E2,7.486968E1,1.7421253E1,3.2730892E1,2.0359716E0,3.1699707E1,2.4739845E0,8.523647E0,5.8484597E0,1.35432625E1,1.1955047E2,4.7394857E0,4.7283787E1,7.555069E1,5.5181488E1,1.9688196E1,1.4639907E1,2.7813458E0,2.5515188E1,7.215705E0,2.276467E1,8.935038E0,1.0345616E0,7.4890857E0,3.7259574E0,2.1225026E0,7.826735E0,5.716528E0,2.403754E1,9.5512924E1,1.678038E0,3.0614479E0,1.6128529E1,3.1155258E1,5.5420963E1,2.0129726E1,4.626396E1,8.917525E0,5.5156584E0,1.4172538E1],"tree_param":{"num_deleted":"0","num_feature":"19","num_nodes":"53","size_leaf_vector":"1"}},{"base_weights":[-5.121589E-5,3.9761314E-1,-8.5043E-2,5.3268325E-1,3.2699743E-1,-2.830036E-1,5.2500535E-2,-2.7043174E-3,5.6288713E-1,2.1781267E-1,4.5439482E-1,5.211207E-2,-3.4384236E-1,-6.2476867E-3,2.6860985E-1,6.072067E-1,1.3532925E-1,3.387191E-1,7.178E-2,5.171249E-1,1.4939052E-1,-1.7057705E-1,2.0078307E-1,-3.5679486E-1,-1.1888595E-2,3.457806E-2,-2.4062818E-1,3.5095543E-1,8.091047E-3,3.163008E-2,4.379017E-3,1.8545128E-3,8.869761E-3,2.389502E-2,4.39918E-3,-1.6083796E-2,7.169151E-3,6.096003E-3,2.7664099E-2,-1.945237E-3,1.5450674E-2,4.7596996E-3,-1.7239397E-2,1.9443981E-2,4.8645246E-3,-1.9127345E-2,-1.245092E-2,1.4684737E-2,-1.0482195E-2,1.243252E-2,-8.819553E-4,-2.4271425E-2,6.26663E-3,-1.7630398E-2,1.9332275E-2,7.50718E-3,-1.4983291E-2],"categories":[],"categories_nodes":[],"categories_segments":[],"categories_sizes":[],"default_left":[0,0,0,0,0,0,0,0,0,0,0,0,0,0,0,0,0,0,0,0,0,0,0,0,0,0,0,0,0,0,0,0,0,0,0,0,0,0,0,0,0,0,0,0,0,0,0,0,0,0,0,0,0,0,0,0,0],"id":19,"left_children":[1,3,5,7,9,11,13,-1,15,17,19,21,23,25,27,29,31,33,35,37,39,41,43,45,47,49,51,53,55,-1,-1,-1,-1,-1,-1,-1,-1,-1,-1,-1,-1,-1,-1,-1,-1,-1,-1,-1,-1,-1,-1,-1,-1,-1,-1,-1,-1],"loss_changes":[1.4876229E1,5.6507874E-1,9.888934E0,4.738593E-1,6.450224E-1,3.0521717E0,2.728993E0,0E0,3.703804E-1,5.1813936E-1,3.7742233E-1,8.2007104E-1,5.3789806E-1,1.6338472E0,9.8264194E-1,2.2636223E-1,8.007631E-3,5.351074E-1,4.7390807E-1,2.0838737E-1,1.7613041E-1,4.9781457E-1,2.4817938E-1,2.4145699E-1,4.1023263E-1,1.6314037E0,2.3297677E0,1.0122099E0,5.7207173E-1,0E0,0E0,0E0,0E0,0E0,0E0,0E0,0E0,0E0,0E0,0E0,0E0,0E0,0E0,0E0,0E0,0E0,0E0,0E0,0E0,0E0,0E0,0E0,0E0,0E0,0E0,0E0,0E0],"parents":[2147483647,0,0,1,1,2,2,3,3,4,4,5,5,6,6,8,8,9,9,10,10,11,11,12,12,13,13,14,14,15,15,16,16,17,17,18,18,19,19,20,20,21,21,22,22,23,23,24,24,25,25,26,26,27,27,28,28],"right_children":[2,4,6,8,10,12,14,-1,16,18,20,22,24,26,28,30,32,34,36,38,40,42,44,46,48,50,52,54,56,-1,-1,-1,-1,-1,-1,-1,-1,-1,-1,-1,-1,-1,-1,-1,-1,-1,-1,-1,-1,-1,-1,-1,-1,-1,-1,-1,-1],"split_conditions":[2.858693E-1,1.1428571E-2,6.165851E8,-2.3029517E-2,1.6828351E0,-3.24994E-2,7.307692E-1,-2.7043174E-3,7.44339E-3,6.147349E-3,-7.16685E-3,1.4145115E-1,8.3189744E-1,8.2179604E9,3.8520342E-1,1.6012391E-2,-7.457059E-3,-1.6129032E-1,-7.121212E-1,-3.631292E-1,6.898418E-3,7.545661E-3,-4.883251E-2,1.7738546E0,4.550048E-1,-5.6363636E-1,3.834069E-2,-3.0843943E-1,9.1499716E-2,3.163008E-2,4.379017E-3,1.8545128E-3,8.869761E-3,2.389502E-2,4.39918E-3,-1.6083796E-2,7.169151E-3,6.096003E-3,2.7664099E-2,-1.945237E-3,1.5450674E-2,4.7596996E-3,-1.7239397E-2,1.9443981E-2,4.8645246E-3,-1.9127345E-2,-1.245092E-2,1.4684737E-2,-1.0482195E-2,1.243252E-2,-8.819553E-4,-2.4271425E-2,6.26663E-3,-1.7630398E-2,1.9332275E-2,7.50718E-3,-1.4983291E-2],"split_indices":[14,10,5,12,16,17,11,0,3,2,9,4,18,5,4,12,12,11,11,15,2,2,9,16,14,11,2,4,1,0,0,0,0,0,0,0,0,0,0,0,0,0,0,0,0,0,0,0,0,0,0,0,0,0,0,0,0],"split_type":[0,0,0,0,0,0,0,0,0,0,0,0,0,0,0,0,0,0,0,0,0,0,0,0,0,0,0,0,0,0,0,0,0,0,0,0,0,0,0,0,0,0,0,0,0,0,0,0,0,0,0,0,0,0,0,0,0],"sum_hessian":[4.3814807E2,7.650657E1,3.616415E2,2.4019629E1,5.248694E1,1.4782527E2,2.1381624E2,1.1371678E0,2.2882462E1,2.9722908E1,2.2764032E1,2.273553E1,1.25089745E2,1.6887854E2,4.4937687E1,2.0352589E1,2.5298731E0,1.5538484E1,1.4184423E1,1.8303991E1,4.4600406E0,9.042995E0,1.3692534E1,1.2032014E2,4.7696033E0,1.445521E2,2.4326447E1,3.3881252E1,1.1056432E1,1.9196985E1,1.1556025E0,1.3226744E0,1.2071986E0,9.409405E0,6.129079E0,1.6461886E0,1.2538235E1,1.9007157E0,1.6403276E1,2.3932147E0,2.0668256E0,3.7601664E0,5.2828293E0,3.881107E0,9.811428E0,9.505767E1,2.526247E1,1.68331E0,3.0862935E0,2.76078E1,1.169443E2,1.4380513E1,9.945933E0,1.2070367E0,3.2674217E1,7.9151435E0,3.1412885E0],"tree_param":{"num_deleted":"0","num_feature":"19","num_nodes":"57","size_leaf_vector":"1"}},{"base_weights":[1.0057208E-5,2.827811E-1,-1.1695949E-1,4.5447552E-1,1.6548404E-1,-3.091341E-1,2.1579234E-2,5.022E-1,5.5633757E-2,1.1938073E-1,3.277118E-2,5.239616E-2,-3.406444E-1,-7.010392E-2,1.7158242E-1,5.260222E-1,5.908745E-2,-1.4347905E-2,2.2006817E-1,-1.019426E-2,2.7678216E-1,-2.2427794E-1,1.6040039E-1,-2.2923675E-1,-3.654195E-1,9.984903E-2,-1.4458764E-1,6.080747E-2,3.8658127E-1,1.9030599E-3,2.6958415E-2,-1.1815618E-3,5.30995E-3,3.5787967E-3,1.8224863E-2,7.812917E-3,-6.955135E-3,-1.080898E-2,1.523296E-2,-2.866514E-3,-1.3473521E-2,-5.2751815E-3,1.1897783E-2,-1.1886296E-2,-4.8380727E-3,-1.9994583E-2,-1.4112191E-2,1.5518472E-2,-1.8040562E-2,1.2623484E-2,-1.0107302E-2,1.4182649E-2,-3.1709354E-3,2.3274135E-2,1.4884216E-3],"categories":[],"categories_nodes":[],"categories_segments":[],"categories_sizes":[],"default_left":[0,0,0,0,0,0,0,0,0,0,0,0,0,0,0,0,0,0,0,0,0,0,0,0,0,0,0,0,0,0,0,0,0,0,0,0,0,0,0,0,0,0,0,0,0,0,0,0,0,0,0,0,0,0,0],"id":20,"left_children":[1,3,5,7,9,11,13,15,17,19,-1,21,23,25,27,29,31,-1,33,35,37,39,41,43,45,47,49,51,53,-1,-1,-1,-1,-1,-1,-1,-1,-1,-1,-1,-1,-1,-1,-1,-1,-1,-1,-1,-1,-1,-1,-1,-1,-1,-1],"loss_changes":[1.4507435E1,2.509554E0,8.26718E0,9.527283E-1,1.6796343E0,1.4992561E0,2.50444E0,4.5332623E-1,4.366757E-1,1.478491E0,0E0,3.734039E-1,2.4675274E-1,1.4472864E0,1.6207638E0,2.5802326E-1,1.6023483E-2,0E0,8.213371E-2,8.939485E-1,5.1529527E-1,1.1617288E-2,2.0461541E-1,4.514575E-3,1.6318893E-1,3.5142283E0,1.8589725E0,1.3121808E0,6.418047E-1,0E0,0E0,0E0,0E0,0E0,0E0,0E0,0E0,0E0,0E0,0E0,0E0,0E0,0E0,0E0,0E0,0E0,0E0,0E0,0E0,0E0,0E0,0E0,0E0,0E0,0E0],"parents":[2147483647,0,0,1,1,2,2,3,3,4,4,5,5,6,6,7,7,8,8,9,9,11,11,12,12,13,13,14,14,15,15,16,16,18,18,19,19,20,20,21,21,22,22,23,23,24,24,25,25,26,26,27,27,28,28],"right_children":[2,4,6,8,10,12,14,16,18,20,-1,22,24,26,28,30,32,-1,34,36,38,40,42,44,46,48,50,52,54,-1,-1,-1,-1,-1,-1,-1,-1,-1,-1,-1,-1,-1,-1,-1,-1,-1,-1,-1,-1,-1,-1,-1,-1,-1,-1],"split_conditions":[1.1948831E-2,2.3647286E-1,6.165851E8,2.1808174E-2,8.70475E-1,9.223872E-3,6.119403E-1,4.089985E-3,-1.0893635E-1,1.7458009E0,3.277118E-2,-6.147514E-2,-1.0662209E-1,1.854714E-2,2.7201329E9,-2.2337187E-2,1.7253283E-3,-1.4347905E-2,-2.475092E-2,2.858693E-1,-2.265338E-2,-9.807243E-2,7.7639287E-3,3.188583E-1,3.1129697E-2,1.1816222E-1,-6.976174E-1,2.43429E-2,1.4873278E-1,1.9030599E-3,2.6958415E-2,-1.1815618E-3,5.30995E-3,3.5787967E-3,1.8224863E-2,7.812917E-3,-6.955135E-3,-1.080898E-2,1.523296E-2,-2.866514E-3,-1.3473521E-2,-5.2751815E-3,1.1897783E-2,-1.1886296E-2,-4.8380727E-3,-1.9994583E-2,-1.4112191E-2,1.5518472E-2,-1.8040562E-2,1.2623484E-2,-1.0107302E-2,1.4182649E-2,-3.1709354E-3,2.3274135E-2,1.4884216E-3],"split_indices":[3,13,5,10,13,2,11,1,18,16,0,9,9,10,5,12,0,0,17,14,12,15,12,18,3,18,18,12,15,0,0,0,0,0,0,0,0,0,0,0,0,0,0,0,0,0,0,0,0,0,0,0,0,0,0],"split_type":[0,0,0,0,0,0,0,0,0,0,0,0,0,0,0,0,0,0,0,0,0,0,0,0,0,0,0,0,0,0,0,0,0,0,0,0,0,0,0,0,0,0,0,0,0,0,0,0,0,0,0,0,0,0,0],"sum_hessian":[4.366144E2,1.2734453E2,3.0926987E2,5.0520386E1,7.682414E1,1.2904004E2,1.8022984E2,4.4889824E1,5.6305614E0,7.135345E1,5.470695E0,1.0292079E1,1.18747955E2,1.1219065E2,6.8039185E1,4.242207E1,2.4677567E0,1.584404E0,4.046158E0,3.9649048E1,3.1704401E1,2.587394E0,7.704685E0,2.3468502E1,9.527946E1,3.4082493E1,7.810816E1,4.5750008E1,2.2289177E1,1.2150973E0,4.120697E1,1.0763298E0,1.3914268E0,2.7324328E0,1.3137249E0,1.7211973E1,2.2437073E1,1.335389E0,3.036901E1,1.0344741E0,1.5529199E0,1.6583928E0,6.0462923E0,2.1308535E1,2.1599686E0,6.4669426E1,3.061003E1,2.3616205E1,1.0466287E1,9.460451E0,6.864771E1,1.5915796E1,2.983421E1,1.800353E1,4.2856464E0],"tree_param":{"num_deleted":"0","num_feature":"19","num_nodes":"55","size_leaf_vector":"1"}},{"base_weights":[-9.623862E-5,3.7996846E-1,-8.2681775E-2,4.7294116E-1,2.2157028E-1,-2.5848287E-1,3.6530323E-2,4.9110526E-1,-1.6919507E-3,-1.27723515E-2,2.5650814E-1,6.846106E-2,-3.1607693E-1,3.8316755E-3,3.4977543E-1,1.7533869E-3,5.0256944E-1,1.29818E-1,3.734817E-1,-1.2974532E-1,2.0537482E-1,-3.279786E-1,-1.3782421E-2,1.9745983E-1,-4.4902977E-2,-2.0404985E-2,4.6644443E-1,2.8619329E-2,1.7307345E-2,1.4040885E-2,-8.146059E-3,2.5812095E-2,5.7730605E-3,4.0160916E-3,-1.4785527E-2,1.9102296E-2,3.271533E-3,-1.8223828E-2,-1.3229931E-2,1.3532362E-2,-9.91733E-3,1.289476E-2,-7.048865E-3,1.2435641E-2,-4.027315E-3,6.0809863E-4,2.5727442E-2],"categories":[],"categories_nodes":[],"categories_segments":[],"categories_sizes":[],"default_left":[0,0,0,0,0,0,0,0,0,0,0,0,0,0,0,0,0,0,0,0,0,0,0,0,0,0,0,0,0,0,0,0,0,0,0,0,0,0,0,0,0,0,0,0,0,0,0],"id":21,"left_children":[1,3,5,7,9,11,13,15,-1,-1,17,19,21,23,25,-1,27,29,31,33,35,37,39,41,43,-1,45,-1,-1,-1,-1,-1,-1,-1,-1,-1,-1,-1,-1,-1,-1,-1,-1,-1,-1,-1,-1],"loss_changes":[1.3695103E1,1.0422039E0,7.5213337E0,4.6028233E-1,5.769744E-1,2.751297E0,2.195404E0,2.2597313E-1,0E0,0E0,3.8265562E-1,6.3814914E-1,4.395542E-1,1.8509352E0,1.9818087E0,0E0,2.974224E-1,7.3086977E-1,4.77957E-1,3.660813E-1,3.1408656E-1,1.7816448E-1,3.5392177E-1,8.430083E-1,1.6607072E0,0E0,3.8762784E-1,0E0,0E0,0E0,0E0,0E0,0E0,0E0,0E0,0E0,0E0,0E0,0E0,0E0,0E0,0E0,0E0,0E0,0E0,0E0,0E0],"parents":[2147483647,0,0,1,1,2,2,3,3,4,4,5,5,6,6,7,7,10,10,11,11,12,12,13,13,14,14,16,16,17,17,18,18,19,19,20,20,21,21,22,22,23,23,24,24,26,26],"right_children":[2,4,6,8,10,12,14,16,-1,-1,18,20,22,24,26,-1,28,30,32,34,36,38,40,42,44,-1,46,-1,-1,-1,-1,-1,-1,-1,-1,-1,-1,-1,-1,-1,-1,-1,-1,-1,-1,-1,-1],"split_conditions":[2.858693E-1,2.3647286E-1,6.165851E8,6.790249E-5,-1.2511333E-2,-3.24994E-2,8.847981E-2,-2.2337187E-2,-1.6919507E-3,-1.27723515E-2,1.1885962E8,1.4145115E-1,8.3189744E-1,-2.6541904E-2,6.776979E0,1.7533869E-3,7.7639287E-3,4.439877E-1,7.490791E-3,7.545661E-3,-4.883251E-2,9.7797227E-1,4.550048E-1,3.757166E-1,2.4432099E-1,-2.0404985E-2,2.7095838E0,2.8619329E-2,1.7307345E-2,1.4040885E-2,-8.146059E-3,2.5812095E-2,5.7730605E-3,4.0160916E-3,-1.4785527E-2,1.9102296E-2,3.271533E-3,-1.8223828E-2,-1.3229931E-2,1.3532362E-2,-9.91733E-3,1.289476E-2,-7.048865E-3,1.2435641E-2,-4.027315E-3,6.0809863E-4,2.5727442E-2],"split_indices":[14,13,5,9,0,17,7,12,0,0,5,4,18,17,16,0,12,16,12,2,9,16,14,4,16,0,13,0,0,0,0,0,0,0,0,0,0,0,0,0,0,0,0,0,0,0,0],"split_type":[0,0,0,0,0,0,0,0,0,0,0,0,0,0,0,0,0,0,0,0,0,0,0,0,0,0,0,0,0,0,0,0,0,0,0,0,0,0,0,0,0,0,0,0,0,0,0],"sum_hessian":[4.3431775E2,7.6885254E1,3.574325E2,4.7196957E1,2.9688297E1,1.4396306E2,2.1346942E2,4.5593708E1,1.6032485E0,1.5953281E0,2.8092968E1,2.1533758E1,1.22429306E2,1.9420882E2,1.9260601E1,1.2175887E0,4.4376118E1,1.4499187E1,1.35937805E1,8.819036E0,1.2714723E1,1.1770997E2,4.7193403E0,3.8438133E1,1.5577068E2,2.2362328E0,1.7024368E1,2.8843132E1,1.5532988E1,9.592133E0,4.9070554E0,8.107307E0,5.4864736E0,4.120115E0,4.6989207E0,4.8552604E0,7.8594623E0,7.168109E1,4.6028877E1,1.6736642E0,3.0456762E0,3.2816082E1,5.622049E0,1.621554E1,1.3955515E2,1.7500726E0,1.5274296E1],"tree_param":{"num_deleted":"0","num_feature":"19","num_nodes":"47","size_leaf_vector":"1"}},{"base_weights":[-3.1012794E-5,3.6411893E-1,-8.2474425E-2,4.0959364E-1,4.35759E-3,-2.5217995E-1,4.095454E-2,4.5083642E-1,1.5025093E-1,-2.7607003E-1,2.88103E-1,8.718846E-2,-3.2540876E-1,-2.7975522E-2,2.2050154E-1,-3.6849198E-3,4.6710366E-1,1.9970906E-1,-7.839057E-3,6.452508E-3,-2.991384E-2,3.8234073E-1,2.4030402E-3,-8.044781E-2,2.2299369E-1,1.4583006E-2,-3.3785358E-1,4.4498637E-2,-2.3717938E-1,-1.7508004E-2,2.5572118E-1,2.7106425E-2,1.4937902E-2,-1.6548779E-3,1.2492674E-2,4.6795863E-3,2.3755431E-2,1.6195601E-3,-1.665078E-2,1.959706E-2,5.0081364E-3,-1.1935952E-2,1.4259306E-2,-1.729869E-2,-5.8983574E-3,5.5371714E-3,-9.28987E-3,-1.4590055E-2,-4.798097E-3,2.528958E-3,1.6901014E-2],"categories":[],"categories_nodes":[],"categories_segments":[],"categories_sizes":[],"default_left":[0,0,0,0,0,0,0,0,0,0,0,0,0,0,0,0,0,0,0,0,0,0,0,0,0,0,0,0,0,0,0,0,0,0,0,0,0,0,0,0,0,0,0,0,0,0,0,0,0,0,0],"id":22,"left_children":[1,3,5,7,9,11,13,15,17,19,21,23,25,27,29,-1,31,33,-1,-1,-1,35,-1,37,39,41,43,45,47,-1,49,-1,-1,-1,-1,-1,-1,-1,-1,-1,-1,-1,-1,-1,-1,-1,-1,-1,-1,-1,-1],"loss_changes":[1.3130124E1,1.319087E0,7.4802017E0,6.988096E-1,8.8088346E-1,3.7635164E0,2.571964E0,5.5776787E-1,2.0340672E-1,8.050251E-1,1.0593155E-1,6.431819E-1,5.288868E-1,2.2953372E0,1.2477086E0,0E0,5.911045E-1,1.273509E-1,0E0,0E0,0E0,5.7383597E-2,0E0,3.8203263E-1,2.8110325E-1,4.3351063E-1,1.7256355E-1,1.7408675E0,2.722888E-1,0E0,9.089818E-1,0E0,0E0,0E0,0E0,0E0,0E0,0E0,0E0,0E0,0E0,0E0,0E0,0E0,0E0,0E0,0E0,0E0,0E0,0E0,0E0],"parents":[2147483647,0,0,1,1,2,2,3,3,4,4,5,5,6,6,7,7,8,8,9,9,10,10,11,11,12,12,13,13,14,14,16,16,17,17,21,21,23,23,24,24,25,25,26,26,27,27,28,28,30,30],"right_children":[2,4,6,8,10,12,14,16,18,20,22,24,26,28,30,-1,32,34,-1,-1,-1,36,-1,38,40,42,44,46,48,-1,50,-1,-1,-1,-1,-1,-1,-1,-1,-1,-1,-1,-1,-1,-1,-1,-1,-1,-1,-1,-1],"split_conditions":[7.44339E-3,3.9795548E9,5.8548435E8,2.0134227E-2,1.1428571E-2,-3.24994E-2,7.010544E-2,1.2687846E-1,2.734375E-2,-3.7760608E-2,-7.3203165E-3,1.4145115E-1,3.8071942E-1,4.2857144E-2,7.547325E-3,-3.6849198E-3,6.147349E-3,-2.6842412E-1,-7.839057E-3,6.452508E-3,-2.991384E-2,-1.4458695E-1,2.4030402E-3,3.932708E-1,-4.883251E-2,1.4432989E-1,7.788053E-1,1.625192E-1,5.2561663E-2,-1.7508004E-2,6.9058165E-2,2.7106425E-2,1.4937902E-2,-1.6548779E-3,1.2492674E-2,4.6795863E-3,2.3755431E-2,1.6195601E-3,-1.665078E-2,1.959706E-2,5.0081364E-3,-1.1935952E-2,1.4259306E-2,-1.729869E-2,-5.8983574E-3,5.5371714E-3,-9.28987E-3,-1.4590055E-2,-4.798097E-3,2.528958E-3,1.6901014E-2],"split_indices":[3,5,5,10,10,17,2,16,10,9,4,4,14,10,17,0,2,15,0,0,0,4,0,13,9,11,18,6,2,0,1,0,0,0,0,0,0,0,0,0,0,0,0,0,0,0,0,0,0,0,0],"split_type":[0,0,0,0,0,0,0,0,0,0,0,0,0,0,0,0,0,0,0,0,0,0,0,0,0,0,0,0,0,0,0,0,0,0,0,0,0,0,0,0,0,0,0,0,0,0,0,0,0,0,0],"sum_hessian":[4.3535318E2,7.973769E1,3.5561548E2,7.066674E1,9.070959E0,1.4929837E2,2.0631712E2,6.0333614E1,1.0333121E1,4.5757565E0,4.495203E0,2.6464016E1,1.2283435E2,1.4969266E2,5.6624466E1,1.7086291E0,5.8624985E1,9.200597E0,1.1325245E0,2.2926366E0,2.2831202E0,2.8022618E0,1.6929411E0,1.2026401E1,1.4437615E1,4.331313E0,1.1850304E2,1.1176231E2,3.7930344E1,2.771753E0,5.385271E1,3.9016556E1,1.9608429E1,1.6907716E0,7.5098257E0,1.1698551E0,1.6324067E0,8.9151535E0,3.1112468E0,5.155541E0,9.282074E0,2.2980323E0,2.033281E0,1.1372967E2,4.7733655E0,8.7198685E1,2.4563627E1,2.6582235E1,1.134811E1,1.5881191E1,3.797152E1],"tree_param":{"num_deleted":"0","num_feature":"19","num_nodes":"51","size_leaf_vector":"1"}},{"base_weights":[9.080007E-5,2.765954E-1,-1.1695957E-1,4.1796416E-1,1.7721756E-1,-2.8578985E-1,7.500876E-3,4.5697513E-1,-9.750649E-2,1.3620381E-1,3.176922E-2,2.7046373E-2,-3.1372634E-1,-8.025521E-2,1.5555272E-1,4.8445433E-1,1.5613934E-1,6.760331E-2,-1.3964924E-2,-1.0089243E-2,2.8629223E-1,-1.3829541E-2,1.4297524E-1,-3.394926E-1,-2.117994E-1,1.6878473E-2,-2.016052E-1,2.068181E-1,-1.3638407E-1,2.7996972E-2,1.5975425E-2,-2.5768725E-3,1.3326419E-2,-8.982341E-4,6.037411E-3,-1.0076563E-2,4.9908194E-3,-4.200218E-3,1.5614241E-2,-5.846633E-3,1.1011704E-2,-1.1314814E-2,-1.839204E-2,1.9363005E-3,-1.15579525E-2,1.8453708E-2,-5.231808E-3,-2.2118216E-2,-4.412625E-3,3.7542824E-3,1.9032106E-2,1.4324114E-2,-1.8667795E-2],"categories":[],"categories_nodes":[],"categories_segments":[],"categories_sizes":[],"default_left":[0,0,0,0,0,0,0,0,0,0,0,0,0,0,0,0,0,0,0,0,0,0,0,0,0,0,0,0,0,0,0,0,0,0,0,0,0,0,0,0,0,0,0,0,0,0,0,0,0,0,0,0,0],"id":23,"left_children":[1,3,5,7,9,11,13,15,17,19,-1,21,23,25,27,29,31,33,-1,35,37,-1,39,41,43,45,47,49,51,-1,-1,-1,-1,-1,-1,-1,-1,-1,-1,-1,-1,-1,-1,-1,-1,-1,-1,-1,-1,-1,-1,-1,-1],"loss_changes":[1.4064362E1,1.7416744E0,6.4175525E0,1.1025877E0,1.3722091E0,1.141017E0,2.3085635E0,3.301611E-1,1.5472923E-1,1.595298E0,0E0,4.4590336E-1,2.4073601E-1,1.3190372E0,1.0176014E0,3.752203E-1,1.4175528E-1,1.661614E-2,0E0,8.131871E-1,3.7111402E-1,0E0,2.0674837E-1,2.1635437E-1,1.3834941E-1,2.731242E0,1.3172944E0,1.2681684E0,1.1568797E0,0E0,0E0,0E0,0E0,0E0,0E0,0E0,0E0,0E0,0E0,0E0,0E0,0E0,0E0,0E0,0E0,0E0,0E0,0E0,0E0,0E0,0E0,0E0,0E0],"parents":[2147483647,0,0,1,1,2,2,3,3,4,4,5,5,6,6,7,7,8,8,9,9,11,11,12,12,13,13,14,14,15,15,16,16,17,17,19,19,20,20,22,22,23,23,24,24,25,25,26,26,27,27,28,28],"right_children":[2,4,6,8,10,12,14,16,18,20,-1,22,24,26,28,30,32,34,-1,36,38,-1,40,42,44,46,48,50,52,-1,-1,-1,-1,-1,-1,-1,-1,-1,-1,-1,-1,-1,-1,-1,-1,-1,-1,-1,-1,-1,-1,-1,-1],"split_conditions":[1.1665378E-2,2.3647286E-1,6.165851E8,4.089985E-3,8.70475E-1,9.223872E-3,6.119403E-1,7.44339E-3,3.5133365E-1,1.7458009E0,3.176922E-2,-6.147514E-2,1.7738546E0,-3.7821482E-3,1.0233245E0,7.7639287E-3,1.5037594E-2,2.0548649E-4,-1.3964924E-2,6.0509097E-5,-3.841578E-1,-1.3829541E-2,7.7639287E-3,-1.028522E-1,2.651245E8,1.6828351E0,-1.743121E-1,6.895734E-2,7.4826956E-2,2.7996972E-2,1.5975425E-2,-2.5768725E-3,1.3326419E-2,-8.982341E-4,6.037411E-3,-1.0076563E-2,4.9908194E-3,-4.200218E-3,1.5614241E-2,-5.846633E-3,1.1011704E-2,-1.1314814E-2,-1.839204E-2,1.9363005E-3,-1.15579525E-2,1.8453708E-2,-5.231808E-3,-2.2118216E-2,-4.412625E-3,3.7542824E-3,1.9032106E-2,1.4324114E-2,-1.8667795E-2],"split_indices":[3,13,5,1,13,2,11,3,18,16,0,9,16,7,18,12,10,0,0,12,15,0,12,9,5,16,4,3,1,0,0,0,0,0,0,0,0,0,0,0,0,0,0,0,0,0,0,0,0,0,0,0,0],"split_type":[0,0,0,0,0,0,0,0,0,0,0,0,0,0,0,0,0,0,0,0,0,0,0,0,0,0,0,0,0,0,0,0,0,0,0,0,0,0,0,0,0,0,0,0,0,0,0,0,0,0,0,0,0],"sum_hessian":[4.3255557E2,1.2824446E2,3.0431113E2,5.1614735E1,7.662973E1,1.2858698E2,1.7572414E2,4.8088837E1,3.5258982E0,7.152436E1,5.105369E0,1.0544148E1,1.1804282E2,1.1061578E2,6.510835E1,4.350464E1,4.5841994E0,2.1768951E0,1.3490032E0,3.6692497E1,3.483186E1,2.5304935E0,8.013655E0,9.23634E1,2.5679422E1,6.191628E1,4.8699505E1,5.563089E1,9.477467E0,2.8203167E1,1.5301471E1,1.7760376E0,2.8081617E0,1.0876501E0,1.089245E0,1.3078207E1,2.3614292E1,2.138232E0,3.2693626E1,1.7185912E0,6.295064E0,2.0297367E1,7.206604E1,1.7703024E0,2.3909119E1,1.5359964E1,4.6556313E1,1.4659801E1,3.4039707E1,3.246174E1,2.3169151E1,3.3286679E0,6.1487985E0],"tree_param":{"num_deleted":"0","num_feature":"19","num_nodes":"53","size_leaf_vector":"1"}},{"base_weights":[-7.988487E-5,2.6103562E-1,-1.1868345E-1,4.0279898E-1,1.6617978E-1,-2.9471722E-1,1.1427853E-2,4.3913358E-1,5.9703145E-2,1.2858322E-1,3.136827E-2,5.3153627E-2,-3.2186684E-1,-4.9877446E-2,2.2372282E-1,-3.299481E-3,4.5891717E-1,-1.1017506E-2,1.9609183E-1,1.9103946E-1,-9.638633E-2,1.5348037E-1,-1.2632492E-2,-3.5821468E-1,-2.4373506E-1,-3.2695655E-3,-2.5157416E-1,3.3003965E-1,-1.5308458E-1,2.407565E-2,2.565106E-3,1.8417593E-3,1.746982E-2,1.0744686E-2,-5.389464E-3,-2.2106174E-2,-5.2381173E-4,1.7422084E-3,1.2941904E-2,-1.2161884E-2,-1.9203467E-2,-1.2671197E-2,-5.101348E-3,-1.8452111E-3,1.4201081E-2,1.706977E-2,-1.9805219E-2,-4.1071135E-3,1.9995356E-2,-1.773577E-2,4.0224185E-3],"categories":[],"categories_nodes":[],"categories_segments":[],"categories_sizes":[],"default_left":[0,0,0,0,0,0,0,0,0,0,0,0,0,0,0,0,0,0,0,0,0,0,0,0,0,0,0,0,0,0,0,0,0,0,0,0,0,0,0,0,0,0,0,0,0,0,0,0,0,0,0],"id":24,"left_children":[1,3,5,7,9,11,13,15,17,19,-1,21,23,25,27,-1,29,-1,31,33,35,37,-1,39,41,43,45,47,49,-1,-1,-1,-1,-1,-1,-1,-1,-1,-1,-1,-1,-1,-1,-1,-1,-1,-1,-1,-1,-1,-1],"loss_changes":[1.3428634E1,1.7542934E0,6.8327594E0,6.418686E-1,1.3557854E0,1.2143126E0,2.2550879E0,5.1297665E-1,2.834368E-1,1.112384E0,0E0,3.4665784E-1,2.4702454E-1,1.264494E0,1.6054827E0,0E0,4.0457153E-1,0E0,1.0331102E-1,4.5995617E-1,5.176219E-1,9.3202874E-2,0E0,1.3909817E-1,2.97606E-2,1.0767592E0,2.299343E0,9.1378427E-1,4.629067E-1,0E0,0E0,0E0,0E0,0E0,0E0,0E0,0E0,0E0,0E0,0E0,0E0,0E0,0E0,0E0,0E0,0E0,0E0,0E0,0E0,0E0,0E0],"parents":[2147483647,0,0,1,1,2,2,3,3,4,4,5,5,6,6,7,7,8,8,9,9,11,11,12,12,13,13,14,14,16,16,18,18,19,19,20,20,21,21,23,23,24,24,25,25,26,26,27,27,28,28],"right_children":[2,4,6,8,10,12,14,16,18,20,-1,22,24,26,28,-1,30,-1,32,34,36,38,-1,40,42,44,46,48,50,-1,-1,-1,-1,-1,-1,-1,-1,-1,-1,-1,-1,-1,-1,-1,-1,-1,-1,-1,-1,-1,-1],"split_conditions":[1.1948831E-2,2.3647286E-1,6.165851E8,2.1808174E-2,8.70475E-1,9.223872E-3,7.307692E-1,-2.2337187E-2,-5.4998513E-2,-2.62663E-2,3.136827E-2,-2.8629305E-2,3.1129697E-2,8.2179604E9,3.0277413E-1,-3.299481E-3,4.089985E-3,-1.1017506E-2,-2.475092E-2,5.792526E-1,-2.8867984E-2,2.1505376E-2,-1.2632492E-2,-1.028522E-1,6.881241E-1,6.109325E-2,-1.7110266E-2,-1.8132279E-2,1.2051156E-1,2.407565E-2,2.565106E-3,1.8417593E-3,1.746982E-2,1.0744686E-2,-5.389464E-3,-2.2106174E-2,-5.2381173E-4,1.7422084E-3,1.2941904E-2,-1.2161884E-2,-1.9203467E-2,-1.2671197E-2,-5.101348E-3,-1.8452111E-3,1.4201081E-2,1.706977E-2,-1.9805219E-2,-4.1071135E-3,1.9995356E-2,-1.773577E-2,4.0224185E-3],"split_indices":[3,13,5,10,13,2,11,12,18,17,0,17,3,5,15,0,1,0,17,6,1,10,0,9,18,7,7,9,9,0,0,0,0,0,0,0,0,0,0,0,0,0,0,0,0,0,0,0,0,0,0],"split_type":[0,0,0,0,0,0,0,0,0,0,0,0,0,0,0,0,0,0,0,0,0,0,0,0,0,0,0,0,0,0,0,0,0,0,0,0,0,0,0,0,0,0,0,0,0,0,0,0,0,0,0],"sum_hessian":[4.3161176E2,1.3443692E2,2.9717484E2,5.259161E1,8.184531E1,1.2576129E2,1.7141356E2,4.7302277E1,5.2893324E0,7.68585E1,4.986811E0,9.03515E0,1.1672614E2,1.3359874E2,3.7814808E1,1.6947824E0,4.5607494E1,1.5306904E0,3.7586422E0,6.0275562E1,1.6582932E1,7.1782475E0,1.8569022E0,7.721843E1,3.9507706E1,1.0934713E2,2.4251617E1,2.9590046E1,8.224765E0,4.30403E1,2.5671966E0,2.4518611E0,1.3067809E0,5.6079826E1,4.1957383E0,2.4752338E0,1.41076975E1,4.0022774E0,3.1759706E0,1.608691E1,6.1131523E1,3.6241455E1,3.266253E0,9.86672E1,1.0679932E1,4.485732E0,1.9765886E1,4.2632704E0,2.5326775E1,4.1353884E0,4.0893764E0],"tree_param":{"num_deleted":"0","num_feature":"19","num_nodes":"51","size_leaf_vector":"1"}},{"base_weights":[5.665758E-5,2.5499952E-1,-1.1640589E-1,3.5369542E-1,1.2005862E-1,-2.942697E-1,1.5014176E-2,4.2032388E-1,2.2654389E-1,6.471611E-2,3.077503E-2,3.9066747E-2,-3.215297E-1,-2.4487898E-2,2.7338812E-1,-3.204257E-3,4.389041E-1,-1.4238417E-1,2.6480812E-1,-1.05527245E-1,1.9055967E-1,1.3343598E-1,-1.2938897E-2,-3.5788655E-1,-2.4398051E-1,1.1709003E-1,-8.6488865E-2,-3.6273947E-1,4.1517618E-1,2.3769943E-2,5.7944474E-3,4.054811E-3,-1.4664396E-2,1.1715859E-3,1.5389602E-2,-2.0532487E-2,2.2601394E-4,1.0953768E-2,-6.5476038E-3,8.702565E-4,1.1605545E-2,-1.2424022E-2,-1.9115165E-2,-1.268465E-2,-5.1467437E-3,1.2483143E-2,-5.392742E-3,-2.6730036E-2,-1.8436743E-3,-2.4748046E-3,-2.5470564E-2,-6.785723E-3,2.452485E-2],"categories":[],"categories_nodes":[],"categories_segments":[],"categories_sizes":[],"default_left":[0,0,0,0,0,0,0,0,0,0,0,0,0,0,0,0,0,0,0,0,0,0,0,0,0,0,0,0,0,0,0,0,0,0,0,0,0,0,0,0,0,0,0,0,0,0,0,0,0,0,0,0,0],"id":25,"left_children":[1,3,5,7,9,11,13,15,17,19,-1,21,23,25,27,-1,29,31,33,35,37,39,-1,41,43,45,47,49,51,-1,-1,-1,-1,-1,-1,-1,-1,-1,-1,-1,-1,-1,-1,-1,-1,-1,-1,-1,-1,-1,-1,-1,-1],"loss_changes":[1.2848696E1,1.7647543E0,6.9478526E0,5.643997E-1,1.5734034E0,1.159934E0,1.7599139E0,4.7742748E-1,4.4624364E-1,1.1779084E0,0E0,3.278925E-1,2.420826E-1,1.326084E0,2.2126563E0,0E0,5.131426E-1,1.3742939E-1,2.6846182E-1,7.947223E-1,3.168373E-1,9.426096E-2,0E0,1.11763E-1,2.927494E-2,1.4011793E0,2.3110743E0,1.9075513E-1,8.616421E-1,0E0,0E0,0E0,0E0,0E0,0E0,0E0,0E0,0E0,0E0,0E0,0E0,0E0,0E0,0E0,0E0,0E0,0E0,0E0,0E0,0E0,0E0,0E0,0E0],"parents":[2147483647,0,0,1,1,2,2,3,3,4,4,5,5,6,6,7,7,8,8,9,9,11,11,12,12,13,13,14,14,16,16,17,17,18,18,19,19,20,20,21,21,23,23,24,24,25,25,26,26,27,27,28,28],"right_children":[2,4,6,8,10,12,14,16,18,20,-1,22,24,26,28,-1,30,32,34,36,38,40,-1,42,44,46,48,50,52,-1,-1,-1,-1,-1,-1,-1,-1,-1,-1,-1,-1,-1,-1,-1,-1,-1,-1,-1,-1,-1,-1,-1,-1],"split_conditions":[1.1948831E-2,2.858693E-1,6.165851E8,2.3647286E-1,8.70475E-1,9.223872E-3,8.847981E-2,-2.2337187E-2,-3.0456234E-2,1.571645E0,3.077503E-2,-2.8629305E-2,3.1129697E-2,-9.54302E-3,7.7490773E0,-3.204257E-3,0E0,-9.0675345E-3,-2.661089E-1,6.0509097E-5,2.586207E-2,6.9400615E-1,-1.2938897E-2,-1.028522E-1,6.881241E-1,-1.3320838E-2,1.4642654E-2,1.2014075E-1,6.350899E-2,2.3769943E-2,5.7944474E-3,4.054811E-3,-1.4664396E-2,1.1715859E-3,1.5389602E-2,-2.0532487E-2,2.2601394E-4,1.0953768E-2,-6.5476038E-3,8.702565E-4,1.1605545E-2,-1.2424022E-2,-1.9115165E-2,-1.268465E-2,-5.1467437E-3,1.2483143E-2,-5.392742E-3,-2.6730036E-2,-1.8436743E-3,-2.4748046E-3,-2.5470564E-2,-6.785723E-3,2.452485E-2],"split_indices":[3,14,5,13,13,2,7,12,1,16,0,17,3,17,16,0,1,0,4,12,10,16,0,9,18,9,2,10,3,0,0,0,0,0,0,0,0,0,0,0,0,0,0,0,0,0,0,0,0,0,0,0,0],"split_type":[0,0,0,0,0,0,0,0,0,0,0,0,0,0,0,0,0,0,0,0,0,0,0,0,0,0,0,0,0,0,0,0,0,0,0,0,0,0,0,0,0,0,0,0,0,0,0,0,0,0,0,0,0],"sum_hessian":[4.3074313E2,1.3469623E2,2.9604694E2,7.685979E1,5.7836433E1,1.25268906E2,1.7077802E2,4.8919746E1,2.794004E1,5.304208E1,4.794353E0,9.437198E0,1.1583171E2,1.489159E2,2.1862114E1,1.7166096E0,4.7203136E1,2.3698478E0,2.5570194E1,2.2612686E1,3.0429394E1,7.5857277E0,1.8514702E0,7.639907E1,3.943264E1,4.5082474E1,1.0383343E2,3.7007039E0,1.8161411E1,4.1987568E1,5.21557E0,1.1416788E0,1.2281691E0,4.0987544E0,2.147144E1,5.2698126E0,1.7342875E1,2.8243053E1,2.1863403E0,4.0269117E0,3.5588162E0,1.5978683E1,6.0420387E1,3.6145016E1,3.287625E0,2.8296091E1,1.6786383E1,9.376118E0,9.4457306E1,1.6067241E0,2.0939798E0,2.0880148E0,1.6073397E1],"tree_param":{"num_deleted":"0","num_feature":"19","num_nodes":"53","size_leaf_vector":"1"}},{"base_weights":[1.0393522E-4,2.4232523E-1,-1.09755546E-1,3.9138865E-1,1.3706602E-1,-2.7186865E-1,1.0981749E-2,4.2730588E-1,4.6646807E-2,1.00770354E-1,3.0129343E-2,7.59157E-2,-3.0215076E-1,-7.374004E-2,1.5091655E-1,4.6370035E-1,1.4199932E-1,-1.1427671E-2,1.841705E-1,1.4312045E-1,-1.4527655E-1,1.7317079E-1,-1.2658844E-2,-3.450153E-1,-2.329353E-1,-1.1925728E-1,1.8882366E-1,2.1093304E-1,-1.017815E-1,2.3995243E-2,8.033142E-6,-3.9345273E-3,1.5667044E-2,1.1849226E-3,1.7122809E-2,8.308813E-3,-7.1525234E-3,-1.7157994E-2,7.900931E-3,2.3302385E-3,1.5214591E-2,-1.2069948E-2,-1.8421795E-2,-1.2069951E-2,-5.517137E-4,3.001787E-3,-1.18554225E-2,-6.421599E-3,1.939846E-2,6.953043E-3,2.3439532E-2,-1.34242615E-2,1.5870465E-2],"categories":[],"categories_nodes":[],"categories_segments":[],"categories_sizes":[],"default_left":[0,0,0,0,0,0,0,0,0,0,0,0,0,0,0,0,0,0,0,0,0,0,0,0,0,0,0,0,0,0,0,0,0,0,0,0,0,0,0,0,0,0,0,0,0,0,0,0,0,0,0,0,0],"id":26,"left_children":[1,3,5,7,9,11,13,15,17,19,-1,21,23,25,27,29,31,-1,33,35,37,39,-1,41,43,45,47,49,51,-1,-1,-1,-1,-1,-1,-1,-1,-1,-1,-1,-1,-1,-1,-1,-1,-1,-1,-1,-1,-1,-1,-1,-1],"loss_changes":[1.1441862E1,2.0514555E0,5.7929697E0,6.6095924E-1,1.2939639E0,1.3531847E0,2.0325422E0,4.4999504E-1,2.809466E-1,8.083219E-1,0E0,3.9322746E-1,2.649603E-1,1.2998095E0,1.0016229E0,3.2754993E-1,2.9167968E-1,0E0,1.1284E-1,4.5252502E-1,7.5010026E-1,1.3550875E-1,0E0,8.0449104E-2,8.671975E-2,1.9518119E0,1.0719161E0,9.0870976E-1,9.9912065E-1,0E0,0E0,0E0,0E0,0E0,0E0,0E0,0E0,0E0,0E0,0E0,0E0,0E0,0E0,0E0,0E0,0E0,0E0,0E0,0E0,0E0,0E0,0E0,0E0],"parents":[2147483647,0,0,1,1,2,2,3,3,4,4,5,5,6,6,7,7,8,8,9,9,11,11,12,12,13,13,14,14,15,15,16,16,18,18,19,19,20,20,21,21,23,23,24,24,25,25,26,26,27,27,28,28],"right_children":[2,4,6,8,10,12,14,16,18,20,-1,22,24,26,28,30,32,-1,34,36,38,40,-1,42,44,46,48,50,52,-1,-1,-1,-1,-1,-1,-1,-1,-1,-1,-1,-1,-1,-1,-1,-1,-1,-1,-1,-1,-1,-1,-1,-1],"split_conditions":[1.1665378E-2,2.3647286E-1,6.165851E8,2.1808174E-2,8.70475E-1,9.223872E-3,6.119403E-1,7.44339E-3,-5.4998513E-2,-1.8940136E-2,3.0129343E-2,-2.8629305E-2,9.7797227E-1,9.832134E-2,4.1255635E-1,1.6012391E-2,1.5037594E-2,-1.1427671E-2,-2.475092E-2,5.792526E-1,7.852782E-1,2.1808174E-2,-1.2658844E-2,-1.028522E-1,8.7087375E-1,2.0484172E-2,8.1937574E-2,8.847981E-2,3.464158E0,2.3995243E-2,8.033142E-6,-3.9345273E-3,1.5667044E-2,1.1849226E-3,1.7122809E-2,8.308813E-3,-7.1525234E-3,-1.7157994E-2,7.900931E-3,2.3302385E-3,1.5214591E-2,-1.2069948E-2,-1.8421795E-2,-1.2069951E-2,-5.517137E-4,3.001787E-3,-1.18554225E-2,-6.421599E-3,1.939846E-2,6.953043E-3,2.3439532E-2,-1.34242615E-2,1.5870465E-2],"split_indices":[3,13,5,10,13,2,11,3,18,17,0,17,16,10,6,12,10,0,17,6,14,10,0,9,18,10,3,7,13,0,0,0,0,0,0,0,0,0,0,0,0,0,0,0,0,0,0,0,0,0,0,0,0],"split_type":[0,0,0,0,0,0,0,0,0,0,0,0,0,0,0,0,0,0,0,0,0,0,0,0,0,0,0,0,0,0,0,0,0,0,0,0,0,0,0,0,0,0,0,0,0,0,0,0,0,0,0,0,0],"sum_hessian":[4.2797916E2,1.3316576E2,2.948134E2,5.3989655E1,7.9176094E1,1.25309494E2,1.695039E2,4.8678543E1,5.311112E0,7.457788E1,4.5982113E0,9.916248E0,1.1539324E2,1.0587576E2,6.3628136E1,4.2616943E1,6.061601E0,1.5491565E0,3.7619555E0,6.398327E1,1.0594612E1,8.019947E0,1.8963017E0,6.880081E1,4.6592434E1,9.069837E1,1.5177393E1,5.1550114E1,1.2078021E1,4.1143337E1,1.4736034E0,2.8856237E0,3.1759777E0,2.4389927E0,1.3229628E0,5.9600754E1,4.382517E0,6.3319354E0,4.262677E0,4.7705517E0,3.249395E0,1.4768735E1,5.4032078E1,4.4795963E1,1.7964686E0,3.6166702E1,5.453167E1,5.9899626E0,9.18743E0,4.1517353E1,1.0032763E1,8.898703E0,3.179319E0],"tree_param":{"num_deleted":"0","num_feature":"19","num_nodes":"53","size_leaf_vector":"1"}},{"base_weights":[-2.097298E-4,2.463221E-1,-1.14572525E-1,3.846705E-1,1.4818709E-1,-2.8279054E-1,1.06793605E-2,4.099309E-1,-1.2737835E-2,1.1444462E-1,2.972725E-2,5.352462E-2,-3.1189892E-1,-7.230737E-2,1.4376996E-1,-3.9740372E-3,4.285104E-1,4.3013785E-3,-5.2013188E-3,-6.288561E-3,2.1795884E-1,1.4405201E-1,-1.2658591E-2,-3.4825236E-1,-2.3547095E-1,7.991773E-3,-2.22364E-1,2.7249044E-1,4.5959648E-2,2.301605E-2,7.945978E-3,7.08521E-3,-6.4368933E-3,1.2975499E-2,-3.5326488E-3,1.6260039E-2,2.1831137E-3,-1.1911776E-2,-1.8406646E-2,-1.2280865E-2,-4.696208E-3,1.2497223E-2,-7.832768E-3,-2.656414E-2,-5.0919857E-3,4.6887533E-3,2.0916227E-2,-1.0696161E-2,9.4903605E-3],"categories":[],"categories_nodes":[],"categories_segments":[],"categories_sizes":[],"default_left":[0,0,0,0,0,0,0,0,0,0,0,0,0,0,0,0,0,0,0,0,0,0,0,0,0,0,0,0,0,0,0,0,0,0,0,0,0,0,0,0,0,0,0,0,0,0,0,0,0],"id":27,"left_children":[1,3,5,7,9,11,13,15,17,19,-1,21,23,25,27,-1,29,-1,-1,31,33,35,-1,37,39,41,43,45,47,-1,-1,-1,-1,-1,-1,-1,-1,-1,-1,-1,-1,-1,-1,-1,-1,-1,-1,-1,-1],"loss_changes":[1.2122263E1,1.7928171E0,6.191352E0,5.6651783E-1,1.1569638E0,1.2442131E0,1.8804764E0,5.1236725E-1,4.7821965E-2,9.619001E-1,0E0,3.374828E-1,2.3904037E-1,1.2664278E0,8.1041086E-1,0E0,3.6279297E-1,0E0,0E0,6.7877096E-1,5.148984E-1,1.4961953E-1,0E0,7.8995705E-2,3.485632E-2,2.8012214E0,1.3093683E0,6.910322E-1,1.4740326E0,0E0,0E0,0E0,0E0,0E0,0E0,0E0,0E0,0E0,0E0,0E0,0E0,0E0,0E0,0E0,0E0,0E0,0E0,0E0,0E0],"parents":[2147483647,0,0,1,1,2,2,3,3,4,4,5,5,6,6,7,7,8,8,9,9,11,11,12,12,13,13,14,14,16,16,19,19,20,20,21,21,23,23,24,24,25,25,26,26,27,27,28,28],"right_children":[2,4,6,8,10,12,14,16,18,20,-1,22,24,26,28,-1,30,-1,-1,32,34,36,-1,38,40,42,44,46,48,-1,-1,-1,-1,-1,-1,-1,-1,-1,-1,-1,-1,-1,-1,-1,-1,-1,-1,-1,-1],"split_conditions":[1.1948831E-2,2.3647286E-1,6.165851E8,4.089985E-3,8.70475E-1,9.223872E-3,6.119403E-1,-2.2337187E-2,-1.9670345E-3,1.7458009E0,2.972725E-2,-2.8629305E-2,3.1129697E-2,1.1816222E-1,3.5696357E-2,-3.9740372E-3,7.44339E-3,4.3013785E-3,-5.2013188E-3,2.858693E-1,4.0637356E-1,2.668968E-1,-1.2658591E-2,-1.0741886E-1,6.881241E-1,2.376033E-2,1.4642654E-2,2.1978907E-2,8.000858E-2,2.301605E-2,7.945978E-3,7.08521E-3,-6.4368933E-3,1.2975499E-2,-3.5326488E-3,1.6260039E-2,2.1831137E-3,-1.1911776E-2,-1.8406646E-2,-1.2280865E-2,-4.696208E-3,1.2497223E-2,-7.832768E-3,-2.656414E-2,-5.0919857E-3,4.6887533E-3,2.0916227E-2,-1.0696161E-2,9.4903605E-3],"split_indices":[3,13,5,1,13,2,11,12,12,16,0,17,3,18,12,0,3,0,0,14,4,13,0,9,18,10,2,0,8,0,0,0,0,0,0,0,0,0,0,0,0,0,0,0,0,0,0,0,0],"split_type":[0,0,0,0,0,0,0,0,0,0,0,0,0,0,0,0,0,0,0,0,0,0,0,0,0,0,0,0,0,0,0,0,0,0,0,0,0,0,0,0,0,0,0,0,0,0,0,0,0],"sum_hessian":[4.27957E2,1.3524834E2,2.9270865E2,5.4913204E1,8.033514E1,1.2439017E2,1.6831848E2,5.1601738E1,3.311467E0,7.585711E1,4.4780283E0,9.841675E0,1.1454849E2,1.0395533E2,6.436315E1,1.7674176E0,4.983432E1,1.6182771E0,1.6931899E0,3.5449753E1,4.0407356E1,8.008208E0,1.8334665E0,7.521526E1,3.933323E1,6.833452E1,3.562081E1,2.7019281E1,3.734387E1,4.394188E1,5.89244E0,1.597955E1,1.9470201E1,3.5410217E1,4.997139E0,2.0570219E0,5.9511867E0,1.3498636E1,6.171663E1,3.601628E1,3.3169482E0,2.7461363E1,4.0873158E1,9.040579E0,2.6580233E1,1.2879211E1,1.414007E1,1.3131903E1,2.4211966E1],"tree_param":{"num_deleted":"0","num_feature":"19","num_nodes":"49","size_leaf_vector":"1"}},{"base_weights":[2.2917289E-4,2.3709261E-1,-1.08613536E-1,3.8457242E-1,1.3546014E-1,-1.7901374E-1,2.0475845E-1,4.2277294E-1,2.8735165E-2,1.0278603E-1,2.9215528E-2,3.912249E-2,-2.359623E-1,-2.1145308E-2,2.4633807E-1,4.4094813E-1,-1.0711098E-4,-1.166796E-2,1.6524185E-1,-1.7044567E-2,1.9991714E-1,-7.95898E-2,3.1960675E-1,-3.0845305E-1,-9.959907E-2,1.646916E-1,4.4525984E-1,-8.421265E-5,2.270332E-2,2.0449518E-4,1.6574068E-2,-9.985681E-3,4.332217E-3,-5.579749E-3,1.1658314E-2,-1.2664506E-2,9.890748E-3,2.7472321E-2,4.3065776E-3,-1.665521E-2,-3.0833052E-3,5.1310104E-3,-1.2082433E-2,-3.2308777E-3,1.6258184E-2,3.0493274E-2,7.3251757E-3],"categories":[],"categories_nodes":[],"categories_segments":[],"categories_sizes":[],"default_left":[0,0,0,0,0,0,0,0,0,0,0,0,0,0,0,0,0,0,0,0,0,0,0,0,0,0,0,0,0,0,0,0,0,0,0,0,0,0,0,0,0,0,0,0,0,0,0],"id":28,"left_children":[1,3,5,7,9,11,13,15,17,19,-1,21,23,-1,25,27,-1,-1,29,31,33,35,37,39,41,43,45,-1,-1,-1,-1,-1,-1,-1,-1,-1,-1,-1,-1,-1,-1,-1,-1,-1,-1,-1,-1],"loss_changes":[1.1047439E1,1.9700899E0,6.513916E0,7.2865295E-1,1.1339633E0,2.994063E0,1.5219648E0,3.804617E-1,2.6597455E-1,9.008477E-1,0E0,1.7102635E0,1.8541174E0,0E0,7.6442814E-1,2.7443218E-1,0E0,0E0,1.2629636E-1,6.8856734E-1,4.6791542E-1,1.8018001E0,7.7084243E-1,7.339287E-1,1.9682875E0,1.4251571E0,6.199622E-1,0E0,0E0,0E0,0E0,0E0,0E0,0E0,0E0,0E0,0E0,0E0,0E0,0E0,0E0,0E0,0E0,0E0,0E0,0E0,0E0],"parents":[2147483647,0,0,1,1,2,2,3,3,4,4,5,5,6,6,7,7,8,8,9,9,11,11,12,12,14,14,15,15,18,18,19,19,20,20,21,21,22,22,23,23,24,24,25,25,26,26],"right_children":[2,4,6,8,10,12,14,16,18,20,-1,22,24,-1,26,28,-1,-1,30,32,34,36,38,40,42,44,46,-1,-1,-1,-1,-1,-1,-1,-1,-1,-1,-1,-1,-1,-1,-1,-1,-1,-1,-1,-1],"split_conditions":[1.1665378E-2,2.3647286E-1,7.183291E-2,2.1808174E-2,8.70475E-1,2.0484172E-2,7.547325E-3,6.790249E-5,-5.4998513E-2,1.7458009E0,2.9215528E-2,1E0,1.1361919E-2,-2.1145308E-2,3.9795548E9,-2.2337187E-2,-1.0711098E-4,-1.166796E-2,-2.475092E-2,6.0509097E-5,-3.273015E-1,4.6464987E0,-3.7821482E-3,1.0797086E1,4.1474655E-2,4.943432E-2,5.486192E1,-8.421265E-5,2.270332E-2,2.0449518E-4,1.6574068E-2,-9.985681E-3,4.332217E-3,-5.579749E-3,1.1658314E-2,-1.2664506E-2,9.890748E-3,2.7472321E-2,4.3065776E-3,-1.665521E-2,-3.0833052E-3,5.1310104E-3,-1.2082433E-2,-3.2308777E-3,1.6258184E-2,3.0493274E-2,7.3251757E-3],"split_indices":[3,13,2,10,13,10,17,9,18,16,0,13,12,0,5,12,0,0,17,12,4,16,7,16,10,7,16,0,0,0,0,0,0,0,0,0,0,0,0,0,0,0,0,0,0,0,0],"split_type":[0,0,0,0,0,0,0,0,0,0,0,0,0,0,0,0,0,0,0,0,0,0,0,0,0,0,0,0,0,0,0,0,0,0,0,0,0,0,0,0,0,0,0,0,0,0,0],"sum_hessian":[4.2651437E2,1.3391353E2,2.9260086E2,5.3498055E1,8.0415474E1,2.3927545E2,5.3325394E1,4.8141743E1,5.3563123E0,7.610445E1,4.3110323E0,4.960004E1,1.8967542E2,2.743277E0,5.0582115E1,4.6130825E1,2.010917E0,1.5913656E0,3.7649467E0,3.4440163E1,4.1664284E1,3.5353325E1,1.4246715E1,1.2301734E2,6.665807E1,3.715851E1,1.3423607E1,1.3529106E0,4.4777916E1,2.4319885E0,1.3329582E0,1.2135294E1,2.2304867E1,3.7908986E0,3.7873386E1,2.1793802E1,1.3559523E1,